[-0.53822969 -1.09508218 -0.09462314 -0.22381204  0.35938133  0.36237072
  0.73142401  0.39334004  0.38241758 -0.16307486 -0.14934419 -0.63832977
 -0.50995669 -0.22875949]:1
[-0.52446634 -0.69875842 -1.47310397 -1.84090949 -0.35098143  0.27654261
  1.30547408  0.88116747  0.67755845 -0.40781544 -0.84301134 -0.09210352
  0.26980564 -0.34850296]:1
[-0.13088764 -0.33672222 -0.43924334  0.17451889 -0.65920663 -0.73039492
 -0.06805879 -0.12301859  0.50035886  0.46337609  0.21925896 -0.03986461
  0.07121226 -0.1092752 ]:0
[ 1.19912781 -0.54345598  0.37287001  0.2987244  -1.15345056 -0.70178556
 -0.11772216 -1.12720465 -1.09271146 -0.13546855 -0.58262196  0.76654183
  1.46255873  1.6187112 ]:1
[ 0.2491924  -0.50916843 -0.04566595  0.04982821 -0.31967731 -0.58678712
 -0.29251773 -1.06958283 -0.20786417 -0.13546855  0.24081717  0.19394254
  0.16275606 -0.12249363]:0
[-0.78252904 -0.7505259   0.10216556 -0.4974523  -0.99873595 -0.98956213
 -1.36612283  0.33627765  0.20521799 -0.4895726  -0.08424684  0.14221081
 -0.23472891 -0.45476881]:1
[-0.82328971 -1.50888586 -0.48868051 -0.69637517 -1.09144432 -0.96095277
 -0.06805879 -1.32804186 -0.38448843 -1.0342664  -1.05986158 -0.61195672
 -0.99928364 -0.90678745]:0
[-0.82328971 -0.06074104 -0.16853889 -0.39799086  0.20526873 -0.58678712
 -0.24236747  0.04928743 -0.08992288 -0.87075208 -0.77791399 -0.53385195
 -0.80069025 -0.74712949]:0
[ 0.49349175  1.05965512  0.64357447 -0.24855611  0.20526873 -0.15540274
  1.30547408  0.59417725  0.70689994  0.13634746  0.71763408  0.9222442
  0.37685523  0.1965631 ]:1
[ 3.38458802  1.21495756  2.34219691  1.71689896  1.2238567   0.36237072
 -0.16787242 -1.49978845 -0.17794735  2.01516942  1.77990437  2.11866734
  2.41079743  2.9078974 ]:1
[-0.67401037 -0.164276   -0.66099061  0.04982821  1.10044622  0.65014729
  0.03224173  0.0201968  -0.38448843 -0.24483202 -0.3226553  -1.41836316
 -0.2806499  -0.50790173]:0
[-0.6332497  -1.57779711 -0.75938496 -0.89529805 -1.12274844 -0.73039492
 -1.56575008 -0.81168324 -0.88617038 -0.95250924 -1.01632245 -0.74230041
 -0.3265709  -0.86687296]:1
[-4.15947669e-01 -7.50525900e-01 -6.36032043e-01  3.40077864e-04
 -1.18415268e+00 -1.84012105e-01 -1.29114088e+00 -4.67071196e-01
 -4.14405245e-01  8.21966136e-02  6.75060574e-02  1.18671235e-02
  2.69805645e-01 -2.42237105e-01]:0
[-0.40244901  0.26667145 -0.26693324 -0.4974523  -0.38168355 -0.90317306
 -1.5409184  -0.75406142 -0.62094632 -0.19015028 -0.21444153 -0.58609086
  0.30051904 -0.26867398]:1
[-0.03586763  0.26667145  0.00377121  0.67182609 -0.07285635  0.10376447
 -0.1927041  -0.69699903 -0.32580545  1.00753899  0.21925896  0.24618145
  0.28501325 -0.28189241]:1
[ 1.34840716  0.90435268  0.64357447  0.49764727 -1.43097364 -1.0759512
 -0.76675418 -0.29532461 -0.65028781 -0.92543382 -0.40931085  0.89637834
 -0.14288692  1.22008467]:0
[-0.22590765  0.62870766 -0.80834215  0.74654346  0.42138758 -0.1262324
 -0.81690444 -0.26623398 -0.79757059 -0.73484408 -0.4744082  -0.45625435
 -0.60179867 -0.45476881]:0
[ 0.52048908  0.30129516 -0.80834215 -0.04963323 -1.15345056 -1.0759512
 -0.4673133  -1.12720465 -1.03402848 -0.87075208 -0.36619443 -0.27417893
 -0.14288692  0.55527514]:1
[-0.375187   -0.07822097 -0.43924334 -1.44306373 -0.07285635  0.62153793
  0.78108737  0.04928743  0.11661819  0.51752694  0.45766741 -0.09210352
  0.10162746  0.10351569]:0
[-0.6332497  -0.44025718 -0.7099478  -0.54694043 -0.04215423 -0.32761991
 -1.29114088  0.93822985  1.26726487  0.73572299 -0.27953887 -0.06573048
 -0.92294744 -0.61416758]:1
[-2.23689677e-02 -1.29652300e-01  2.49997071e-01 -6.21657800e-01
 -2.26968949e-01  1.73754030e-02 -2.42367467e-01  5.65646056e-01
 -1.32309005e-03  3.81618933e-01 -1.36336738e+00 -4.82120217e-01
 -1.12471719e-01 -6.93607093e-02]:0
[-0.21240899 -0.25033103 -0.09462314 -0.89529805 -0.25827307  0.07515511
 -0.96686832  0.42187123 -0.29646396 -0.05424228 -1.12495892 -0.22194003
 -0.20431371 -0.08257914]:0
[-1.93626782  1.4388351  -0.7099478   1.04541296 -0.10355847 -0.38539961
 -1.24147752 -1.61503208 -2.00747556 -1.82370077 -2.55540965 -2.12079896
 -2.75799806 -2.50155276]:0
[ 0.07265104 -0.69875842  0.00377121  0.74654346 -0.41238567 -0.21262147
 -0.04274021 -1.21335766 -0.20786417  0.08219661 -0.0191495   0.5322275
  0.30051904 -0.01622778]:0
[ 2.36662993  2.04222877  1.48064639  1.46800278  0.11256037 -0.64400585
 -1.14166389 -2.01670651 -1.41719382 -0.97958466 -0.12778597  0.89637834
  0.78984599  1.71175862]:0
[ 1.22638982  1.64590501  0.49622293  1.07015702 -0.9066296  -1.0759512
 -0.89188638 -0.00833439 -0.08992288 -0.73484408 -0.99476424  0.0899719
 -0.08175833  0.82119896]:0
[-3.61688333e-01 -1.64276004e-01 -9.46231370e-02 -6.96375174e-01
 -6.90510754e-01 -7.01785557e-01 -1.29114088e+00 -8.68745619e-01
 -5.03005039e-01  4.39455534e-04 -3.87752640e-01 -8.46271049e-01
 -3.11363296e-01 -3.61721391e-01]:0
[-0.02236897  1.4388351   0.84084314  0.27398033  0.26667297  0.10376447
 -0.29251773 -0.26623398  0.2351348   0.0545903   0.26279809  0.71430292
  0.02529126 -0.24223711]:0
[-0.17164831  0.61156388  0.39734861  0.54762058  0.17396461  0.10376447
 -1.39095451 -0.75406142 -0.50300504 -0.13546855  0.21925896  0.16807667
  0.6675888  -0.37493983]:1
[ 0.16767105 -0.56093591  0.56965871 -0.27330017  1.2238567   0.9093145
  0.880901    1.22522007  1.11998209  1.63398994  1.45484036  0.87051247
  1.49327212  0.92746481]:1
[-0.44320968  0.21490398  0.00377121  0.37344177 -0.22696895  0.42015042
 -0.54229524 -1.06958283 -0.65028781 -0.10839313 -0.77791399 -0.24780589
 -0.3569861  -0.64086364]:0
[-2.01752448  1.14571015 -0.78386355  0.74654346 -0.44308779 -0.1840121
 -0.81690444 -1.47125726 -1.32859403 -1.71486819 -3.01066835 -2.45857675
 -3.35437461 -2.72756208]:0
[ 0.23542905  0.33558271 -0.02070738  0.14977483  0.32867921 -2.05371841
  1.0060332   0.25012464 -0.23720566 -0.27190744 -0.21444153  0.35015209
 -0.3265709  -0.25545554]:0
[-0.04963098 -0.06074104  0.02824981 -0.64640187 -0.59780239 -0.98956213
  0.70610543 -0.00833439 -0.14860586 -0.40781544  0.08906427  0.24618145
 -0.3113633   0.2761329 ]:1
[ 0.73779111  0.97360009  0.76692738  1.34379727  0.05055413 -0.1840121
  0.05707341  0.68033026  0.35307609  0.0545903  -0.12778597  0.71430292
  0.57574681  0.59518963]:0
[-2.22132785 -1.28467217 -2.21130157 -1.41783449 -0.75191499 -0.21262147
 -0.09289048 -0.84021443 -0.47308823 -0.8978275  -1.51512028 -1.75664813
 -1.85568035 -2.20919208]:0
[-5.24466343e-01 -1.04331470e+00  1.26644155e-01  3.40077864e-04
  4.21387575e-01  5.35148856e-01  1.10584683e+00  1.06349813e-01
 -1.19264374e-01 -2.17225706e-01  6.75060574e-02 -3.00044801e-01
 -4.94749083e-01 -2.28759485e-01]:1
[-0.21240899 -0.31957844  0.05320837 -0.6216578  -0.69051075 -0.24179181
 -0.94154975 -0.03686558 -0.17794735  0.0545903  -1.45002293 -0.45625435
 -0.24993651 -0.3218069 ]:0
[ 0.16767105 -0.11250852  0.84084314  0.74654346 -0.62850451 -0.55817775
 -0.66694055 -1.52887907 -0.7682291  -0.54425434 -0.38775264  0.45412273
 -0.02062973  0.34274344]:0
[ 0.37120973  0.28381523  0.76692738  0.92072227  1.10044622  0.50653949
 -0.16787242  1.3689949   0.9427825   1.03514531  0.8913679   0.76654183
  0.48390482  0.31604739]:1
[ 1.28064915  2.18005128  1.11154759  1.49323202  1.16185046  0.59292856
  1.9545061  -0.0944874   1.0906406   0.10927204  0.34945364  1.15655853
  0.28501325  0.76806603]:1
[-0.22590765 -0.28495474 -0.61155345 -0.77109255 -0.22696895 -0.55817775
 -0.59195861  0.59417725  0.02859372  0.59928409 -0.38775264 -0.37814958
 -0.11247172 -0.02944622]:1
[-0.26666832 -0.26781096 -0.07014454 -0.22381204 -0.31967731 -0.32761991
 -0.8670547  -0.55322421 -0.62094632 -0.92543382 -0.04070771 -0.17020829
 -0.20431371 -0.52112017]:0
[-0.28016699 -0.3884897   0.12664416 -0.47270823 -1.33886728 -0.47178868
 -0.16787242 -0.35238699 -0.8274874  -0.78899492 -0.3226553   0.06410603
 -0.29585751 -0.24223711]:0
[-0.68750903  0.33558271 -1.22687811 -0.44747899 -0.38168355 -0.38539961
 -1.69088229 -1.21335766 -1.12205295 -0.8978275  -0.82145313 -1.88648464
 -0.02062973 -0.80026241]:1
[-0.42944633 -0.76766968 -0.340849   -0.89529805 -0.41238567 -0.27040117
 -1.64073202 -0.2091716  -0.44374674  0.19102919 -0.40931085 -0.45625435
 -0.08175833 -0.17562656]:1
[ 0.39847174  0.31843893  1.25889913  0.59759389  0.6062023   0.93792387
  0.58146012  0.68033026 -0.06000607  0.57220867  0.93448432  0.84413943
  0.36164763  0.51561984]:0
[ 0.26269106  0.83544142 -0.09462314  0.44815914  0.69891066  0.04598477
  0.6062918  -0.03686558 -0.06000607 -0.10839313  0.41412828 -0.24780589
 -0.66292727  0.10351569]:1
[-0.49746901 -0.04359727 -0.07014454  0.09980152  0.6062023  -0.1840121
 -0.74192249  0.36480884 -0.14860586 -0.43542176 -0.99476424 -0.56022499
 -0.63221388 -0.61416758]:1
[-0.79602771 -0.80195723 -1.49758256 -0.87055399 -0.25827307  0.0173754
 -0.34266799  0.04928743 -0.06000607 -0.32605829 -0.23599974 -0.76816627
 -0.43362049 -0.72069262]:0
[-0.25316966 -0.42277725  0.66853303  0.54762058  0.26667297 -0.0404043
 -0.26768605 -0.29532461 -0.50300504 -0.70723776  0.11104519  0.03824016
 -0.08175833 -0.80026241]:0
[-0.97256906  0.61156388 -1.20239952 -0.44747899 -0.53579615 -0.90317306
 -0.66694055 -1.41419487 -2.27269962 -2.53137799 -1.62333404 -1.96458941
 -1.62637357 -1.30541398]:0
[1.8235072  1.4734588  3.86802928 3.80704472 4.5890498  3.98734585
 3.25305703 3.95078803 4.30612273 3.73047707 3.25389423 2.97731269
 2.18119246 1.76489155]:1
[-0.307429   -0.64699094  0.02824981 -0.44747899 -0.93733172 -0.09762303
 -0.79207275 -0.55322421 -0.41440525 -0.10839313 -0.14934419  0.22031558
  0.13234085 -0.38841745]:0
[-0.06312964 -0.18141978  0.02824981 -0.14909467 -0.65920663 -0.50039805
 -1.19132726 -0.0944874  -0.56168802  0.02751488  0.02396692  0.03824016
 -0.73926347 -0.16240812]:1
[-0.21240899 -0.52631221 -0.1440603   0.02508414 -1.0607422  -1.0759512
 -0.21753578 -0.23770279  0.14653501 -0.24483202  0.11104519  0.03824016
  0.00978547 -0.22875949]:0
[-0.94530705 -1.49174208 -1.10400517 -1.5920133  -0.59780239 -0.24179181
 -0.34266799 -0.63937722 -0.85682889  0.08219661 -0.3226553  -0.87213692
 -0.00542213 -0.36172139]:1
[ 0.33044906  0.5251727   0.00377121  0.3486977   0.9150295   0.8515348
  0.33168261  0.04928743  0.47101737  0.27278635  1.10821814 -0.01399874
  0.89689558  0.86111345]:1
[ 0.23542905  0.62870766  0.76692738  0.09980152 -0.07285635  0.04598477
 -0.36749967  0.42187123  0.2351348   0.43576978 -0.7994722  -0.45625435
 -0.3113633   0.24969603]:0
[-0.80952637 -0.19889971 -0.09462314 -0.67163111 -0.53579615  0.33376135
 -0.44248162 -0.2091716  -0.44374674 -0.65308692 -0.36619443 -0.56022499
  0.08641986 -0.98635724]:1
[-0.41594767 -0.66413472  0.00377121 -0.72111924 -0.69051075 -0.58678712
 -0.91671806  0.70886145  0.50035886  0.29986177  0.15416161  0.32428622
 -0.03583733 -0.05614227]:0
[ 1.97278655  2.1629075  -0.02070738  1.39377058 -0.19626683 -2.08288874
 -0.79207275 -0.86874562 -0.88617038 -0.59840518  0.54432297  0.58446641
  0.6675888   1.32635052]:0
[-0.40244901 -0.164276   -0.39028616 -0.82058068 -0.22696895 -0.44317931
 -1.04185027 -0.81168324 -1.06336997 -0.19015028 -0.21444153 -0.35228371
 -0.66292727  0.05038276]:1
[-0.02236897 -0.30209851  0.10216556 -0.52219636 -0.25827307 -0.38539961
 -1.09151363 -0.26623398 -0.47308823 -0.24483202 -0.27953887 -0.40401544
 -0.38769949 -0.54781622]:1
[-0.18514698 -0.21604348  0.10216556  0.62233796 -0.10355847 -0.27040117
 -1.56575008 -0.63937722 -1.12205295 -0.3536646  -0.27953887 -0.06573048
 -0.78518446 -0.42807275]:1
[-1.50192844 -1.14684966 -1.59597691 -1.24365568 -0.47439191 -0.24179181
 -0.34266799 -0.66790841 -1.06336997 -1.08841724 -1.14651714 -1.10645124
 -1.45819539 -1.85048004]:0
[-0.17164831 -0.31957844  0.02824981 -0.24855611 -0.62850451  0.16098321
  0.2070373  -0.29532461  0.0872767   0.49045151  0.17571982  0.32428622
 -0.08175833  0.16986705]:0
[-0.25316966 -0.21604348  0.12664416  0.8460049  -0.44308779 -0.01123396
 -0.74192249 -0.00833439  0.32315927 -0.32605829  0.37101186  0.0899719
 -0.18880792 -0.12249363]:1
[ 0.46622974  0.12884894 -0.85777931 -0.09912136 -0.69051075 -1.36372778
 -0.56712692 -1.38510425 -0.70897079 -0.10839313 -0.1709024  -0.35228371
  0.07121226  0.59518963]:1
[-0.09012697 -0.23318726  0.42230717 -0.6216578  -0.84462335 -0.78817463
 -1.14166389  0.42187123  0.41175907 -0.24483202  0.04594785  0.37601796
 -0.41841289  0.0636012 ]:1
[-0.82328971 -0.06074104 -0.66099061  0.02508414 -0.47439191  0.42015042
 -0.06805879 -0.55322421 -0.50300504 -0.32605829 -0.64771931 -0.61195672
 -0.54067008 -0.81374003]:0
[-0.86378571  0.24952768 -1.59597691 -0.54694043 -0.28897519 -0.78817463
 -0.94154975 -0.12301859 -0.65028781 -0.38074002 -0.69125844 -0.79403214
 -1.15225422 -0.78704398]:0
[-0.60598769 -0.59522346 -0.98065225 -0.89529805 -0.41238567 -0.84539336
 -1.06668195 -0.03686558  0.0872767  -0.05424228  0.52276475 -0.11796938
 -0.05134312 -0.17562656]:1
[ 0.56124975  0.50802892  0.91427892  1.64218159  0.94573162  0.59292856
 -0.54229524  0.16397163  0.55961716  0.24518004  0.32747272  0.11634494
 -0.12767932  0.30282895]:0
[-0.375187   -0.56093591  0.00377121  0.14977483 -0.31967731 -0.27040117
 -0.36749967 -0.18064041 -0.50300504  0.21810462  0.26279809 -0.06573048
  0.11683506 -0.69399656]:0
[-1.25762909  0.59408395 -1.62093548 -0.57216967 -0.10355847 -0.27040117
 -0.26768605 -0.4670712  -1.03402848 -1.08841724 -1.08141979 -1.62630445
 -0.89223405 -1.50472725]:0
[ 0.41197041 -0.19889971  0.93923749  0.02508414 -0.41238567 -0.1840121
 -0.96686832 -0.26623398 -0.50300504 -0.40781544  0.04594785  0.01186712
  0.20867705 -0.04266465]:1
[0.81904777 0.90435268 1.60351934 0.7717727  1.13114834 1.39847859
 0.880901   1.42605729 1.0313823  1.74282253 1.38974302 0.9222442
 0.78984599 0.68823705]:0
[ 0.20843172 -0.83658093  0.02824981 -1.5920133  -0.81392123 -0.32761991
  0.13205535  1.3975261   1.0313823   0.43576978  0.17571982  0.48049577
 -0.43362049  0.31604739]:1
[ 1.14486847  1.31815636 -0.04566595 -0.09912136  0.23597085  0.30515198
 -0.11772216 -0.92636744 -0.47308823 -0.32605829  0.00240871  0.19394254
 -0.02062973  0.7945029 ]:0
[-1.17610774 -0.3884897  -0.53763769 -0.1985828   0.05055413  0.707927
  1.48026965  0.04928743 -0.56168802 -1.41544587 -0.73437486 -0.66419563
 -1.59566018 -0.68077813]:1
[-0.02236897  0.50802892 -0.48868051  0.72179939  0.01985201 -0.8745637
 -0.81690444 -0.18064041 -0.23720566 -0.3536646  -0.06268863 -0.17020829
 -0.2654423  -0.24223711]:0
[ 1.04984846 -2.92240697 -0.46372194 -2.76129169 -1.6783966  -1.27733871
  1.55525159  1.77066933  2.24128727  2.36874259  3.73113385  2.43108644
  4.15400607  2.40300502]:1
[-0.57899036 -0.73304597 -0.98065225 -0.24855611  0.08125625 -0.35679024
 -1.31645946 -0.95489863 -0.35514694 -1.0342664  -0.14934419 -0.58609086
 -0.24993651 -0.46798724]:0
[-0.17164831 -0.11250852  0.20055991 -0.27330017 -0.01085011 -0.1262324
 -1.14166389 -0.5817554  -0.88617038  0.16395377 -0.82145313 -0.45625435
  0.00978547  0.02368671]:0
[-0.375187   -0.30209851  0.00377121  0.62233796 -0.87532547 -0.35679024
 -1.69088229 -1.44272606 -0.88617038 -0.81660123 -0.23599974 -0.17020829
  0.23939044 -0.69399656]:1
[ 0.16767105 -1.21576091  0.15160272 -0.87055399 -0.10355847 -0.0404043
  1.30547408  0.04928743 -0.26654715 -0.65308692  0.21925896 -0.19607416
 -0.3265709   0.39587637]:1
[-0.91830972 -1.38820712 -1.2513567  -1.14419424 -0.69051075 -0.50039805
 -1.09151363 -0.18064041 -0.62094632 -0.7619195  -0.38775264 -1.5223338
 -0.80069025 -0.74712949]:0
[-0.36168833 -0.14713223  0.22551848 -0.6216578  -0.44308779 -0.32761991
 -0.79207275  0.33627765  0.02859372  0.27278635 -0.27953887 -0.35228371
 -0.14288692 -0.04266465]:0
[-0.29393033 -0.25033103 -0.83330071 -0.82058068  0.32867921  0.79431607
  0.28153235 -0.03686558  0.44167588  0.54513325  0.19770075 -0.22194003
 -0.29585751 -0.22875949]:0
[-0.375187   -0.62984717 -1.57149832 -0.99475949 -0.84462335 -0.98956213
  0.880901    1.3975261   1.0313823   0.29986177  0.32747272 -0.27417893
  0.14754845 -0.44155037]:0
[ 2.63792661  1.02503141  0.84084314  0.19926296 -0.87532547 -0.8745637
 -0.69225913 -0.55322421 -0.7682291  -0.02663597  1.41130123  1.33863394
  1.93667808  2.86798291]:0
[-0.59248902 -0.06074104 -0.48868051 -0.02440399  0.14326249 -0.1262324
 -0.04274021  0.10634981  0.0872767  -0.54425434 -0.0191495  -0.74230041
 -0.57108528 -0.18884499]:0
[-0.09012697  0.42197389 -0.66099061 -0.02440399  0.17396461 -0.15540274
  0.55662844 -0.86874562 -0.94542868 -0.46249718 -0.14934419 -0.79403214
 -0.96886843 -0.29537003]:1
[-0.87754905  0.1631365  -0.75938496 -0.02440399  0.05055413  0.13237384
 -0.56712692 -0.89783625 -0.79757059 -0.24483202 -0.45284998 -0.6900615
 -0.3417785  -0.66755969]:0
[-0.53822969 -0.3884897  -0.75938496 -0.02440399 -0.69051075 -0.64400585
 -0.09289048 -0.43854    -0.32580545 -0.3536646  -0.25755795 -0.6900615
 -0.54067008 -0.45476881]:0
[ 0.15417239  0.02531399 -0.73442639 -0.09912136 -0.96803383 -1.44955588
 -1.44110477 -1.78677867 -1.21065274 -0.95250924 -0.90810868 -0.71592737
 -0.18880792  0.16986705]:1
[-0.67401037  0.07708147 -0.95617366 -0.09912136 -0.87532547 -0.41400898
 -0.64210887 -1.49978845 -1.56505192 -1.06134182 -0.9512251  -0.92437582
 -0.75476926 -0.93322432]:0
[-0.74176837 -0.62984717 -0.8822579  -1.96511499 -0.53579615 -0.1262324
  0.40666455  0.0201968  -0.20786417 -0.19015028 -0.3226553  -0.61195672
 -0.57108528 -0.80026241]:0
[-0.28016699 -0.26781096 -0.21797605 -0.34801755 -0.04215423 -0.32761991
 -0.94154975 -0.75406142 -0.38448843 -0.19015028  0.32747272 -0.22194003
  0.25459804 -0.30858847]:0
[ 0.65626976  0.97360009  0.74196882  1.14487439 -0.31967731 -0.55817775
 -0.31734941  0.10634981 -0.44374674 -0.43542176 -0.43129177  0.63619815
  0.26980564  0.43579086]:0
[ 2.74670997  0.69761891  0.71749022  0.07505745  0.14326249 -0.47178868
 -0.36749967 -0.12301859  0.64764163  0.46337609  1.8234435   1.28639503
  2.60939082  2.68214727]:0
[ 0.3847084   1.1114226  -0.04566595 -0.17383874  0.97703574  0.50653949
  2.0796383   1.02438286  2.06408769  0.98046357  1.41130123  0.74016879
  0.7743402   0.1965631 ]:1
[-0.47020701  0.21490398 -0.07014454  0.99543965  0.7609169   0.19015354
 -0.06805879  0.19250282  0.41175907  0.27278635  0.15416161 -0.01399874
 -0.4029071  -0.30858847]:0
[-5.24466343e-01 -1.12970588e+00 -1.19101731e-01 -7.43772959e-02
 -5.05094032e-01  2.18762911e-01 -1.24147752e+00  8.81167469e-01
  2.64476291e-01  4.39455534e-04  3.05914512e-01 -6.90061499e-01
 -6.65507254e-02 -2.15541050e-01]:0
[ 3.20804667  2.66276622  1.72687225  1.54272015 -0.31967731 -0.70178556
 -0.8670547  -0.69699903 -0.35514694 -0.40781544  0.82627055  1.31276808
  1.7073713   2.74849863]:0
[-0.83678838 -0.69875842 -0.98065225 -0.27330017 -0.28897519 -0.32761991
 -0.89188638  0.47949305  0.32315927 -0.57132976 -0.06268863 -0.61195672
 -0.64771967 -0.92000588]:1
[-0.307429    1.16319008  0.07768697  0.64708202  0.29737509 -0.01123396
 -1.11634532 -0.95489863 -1.94821726 -1.41544587 -1.16807535 -0.6900615
 -1.65678878 -0.92000588]:1
[-0.0766283  -0.37100977  0.56965871 -1.14419424  0.11256037  0.73653636
  1.23049214  0.93822985  0.76615824  1.08929615  0.76117321  0.84413943
  0.10162746  0.47570535]:0
[ 0.37120973  0.73224262  0.76692738  0.79651677  0.48279181  0.65014729
 -0.01790853  0.90969866  0.11661819  0.84455557  0.11104519  0.79240769
  0.7132116   0.72815154]:0
[-1.54268912 -0.88834841 -1.17792092 -0.54694043 -0.19626683 -0.1840121
 -0.04274021 -0.84021443 -0.56168802 -1.60603561 -1.03788066 -1.15818297
 -1.3663534  -1.65090759]:0
[ 0.47972841  0.24952768 -0.16853889  0.87123414 -1.523682    0.39154105
 -0.61727718  0.33627765  0.38241758  0.51752694  0.76117321  0.42825686
  0.95802418  0.56875276]:0
[ 0.91406778  2.35249749  1.72687225  2.26466465  2.02632582  1.57069576
  0.58146012  0.36480884 -0.73888761 -0.73484408  0.21925896  0.97448311
  0.02529126  0.44900929]:0
[ 2.16282657  0.62870766  0.81588457  0.04982821 -0.81392123 -0.32761991
 -0.56712692  0.85263628  1.23792338  1.55223279  1.62815147  1.54657523
  1.84483609  2.49605243]:1
[-2.26208852  0.24952768 -2.58088035 -0.87055399 -0.38168355  0.19015354
 -0.56712692 -0.29532461 -0.65028781 -1.66018646 -1.64489226 -2.53668153
 -1.62637357 -2.03657487]:0
[ 0.52048908  0.57694018  0.07768697  0.67182609  0.20526873  0.88014417
  0.18171872 -1.70062566 -0.41440525  0.59928409  0.19770075  0.35015209
  0.10162746  0.63510412]:0
[-0.48397035 -0.02645349 -0.73442639 -0.1985828  -0.78261711  0.19015354
  0.80591906 -0.12301859 -0.03066458 -0.78899492 -1.03788066 -0.97610756
 -1.12154083 -0.80026241]:0
[-0.375187   -0.52631221 -0.1440603   0.69705533  0.29737509 -0.15540274
 -0.1927041   0.68033026  0.11661819 -0.10839313  0.04594785 -0.50798608
 -0.00542213 -0.46798724]:0
[ 1.57920785  1.45597887  0.37287001 -0.0743773  -0.07285635  0.04598477
  0.03224173 -1.04105164 -1.18131125 -0.32605829  0.21925896  0.5322275
  0.11683506  1.15347413]:0
[-0.0766283  -0.42277725 -0.7099478  -0.59691373  0.11256037 -0.1262324
 -0.79207275 -0.4670712   0.02859372 -0.21722571 -0.7994722  -0.27417893
  0.20867705 -0.1092752 ]:0
[-0.80952637 -1.97445702 -2.26073873 -1.84090949 -0.41238567 -1.0181715
 -0.29251773 -1.12720465 -1.44711063 -0.68016234 -1.31982825 -1.60043858
 -1.15225422 -1.13253759]:1
[ 0.73779111  0.5251727   0.47126436  0.09980152 -1.49297988  0.10376447
 -0.1927041   0.16397163  0.41175907  0.59928409  0.78273142  0.58446641
  0.48390482  0.59518963]:0
[ 2.70594929  0.92183261  0.02824981  1.31905321  0.29737509 -0.27040117
 -0.01790853 -2.10230008 -1.71233469 -0.24483202  0.69607587  0.5322275
  1.06507376  2.37630896]:1
[-0.15814965  0.30129516 -0.53763769  0.07505745 -0.07285635  0.53514886
 -0.01790853 -1.24188885  0.11661819 -0.24483202 -0.99476424 -0.35228371
 -0.2806499  -0.09579758]:0
[ 0.94132979 -0.66413472  0.12664416 -0.42273492 -0.69051075 -0.1840121
  0.95588294  0.22103402  0.44167588 -0.19015028 -0.73437486  1.18242439
  0.45348962  0.54205671]:1
[-0.48397035 -0.04359727 -0.46372194  0.14977483 -0.19626683 -0.32761991
 -0.41716304 -0.35238699  0.1758765  -0.4895726  -0.38775264 -0.48212022
 -0.47954148 -0.56103466]:0
[-0.64674836  0.18061642 -0.9067365  -0.57216967 -0.93733172 -1.10456057
 -0.44248162 -0.66790841 -1.44711063 -1.36076414 -0.66970023 -0.82040518
 -0.44882809 -0.72069262]:0
[-0.26666832 -0.19889971 -0.04566595 -0.69637517 -0.59780239 -0.52900742
  1.05569657  0.10634981  0.14653501  0.0545903   0.17571982  0.0899719
 -0.23472891  0.05038276]:1
[-0.74176837 -1.73309955 -0.78386355 -1.34311712 -0.47439191 -0.41400898
 -0.26768605  0.07781862  0.64764163 -0.16307486 -0.08424684 -0.79403214
  0.19346945 -0.40163588]:0
[-0.91830972  1.66304879  0.81588457  2.38887015  3.26103263  2.40485516
  1.43011939  1.48367911  0.76615824  0.38161893 -0.30109708 -0.09210352
 -0.44882809 -1.19914813]:0
[ 0.12691038  0.5251727  -0.07014454 -0.54694043  0.72961278  0.36237072
 -0.11772216 -0.35238699 -0.03066458  0.49045151  0.30591451 -0.19607416
  0.14754845 -0.24223711]:0
[-0.6332497  -0.56093591 -0.29141184 -0.04963323  0.45208969  0.21876291
 -0.36749967 -0.4670712  -0.62094632 -0.7619195  -0.19246061 -0.45625435
 -0.20431371 -0.73391105]:0
[-0.307429    0.11136902 -0.73442639  0.62233796 -0.13486259  0.16098321
  0.30685092 -0.63937722 -0.44374674  0.13634746 -0.27953887 -0.19607416
 -0.54067008 -0.06936071]:0
[-0.57899036 -0.30209851 -0.6854692  -0.37276161 -1.0607422  -0.41400898
 -1.84084617 -1.38510425 -0.65028781 -0.8978275  -0.75635578 -1.0024806
 -0.08175833 -0.56103466]:1
[2.93648531 3.50751736 5.39434162 5.42414216 6.90435082 7.23815534
 4.37681239 5.81538532 6.4601333  6.91582089 5.5086295  5.76017566
 3.49650093 2.61553672]:0
[-0.79602771 -0.7159022  -0.04566595 -0.09912136 -0.19626683  0.50653949
 -0.91671806  0.10634981 -0.06000607 -0.8978275  -0.53950554  0.24618145
 -0.03583733 -0.25545554]:0
[ 0.03189037  0.74938639  0.29895426  1.02018371 -0.9066296  -1.79511216
  0.73142401 -0.23770279 -0.56168802 -0.40781544 -1.2547309   0.37601796
 -0.2806499  -0.08257914]:0
[ 2.86872731  1.42169132  1.25889913  0.79651677 -0.50509403 -0.96095277
 -0.84173612 -0.92636744 -0.20786417  1.00753899  2.01831282  1.78088955
  2.27303445  3.06755536]:1
[-0.38895034 -0.76766968 -0.7099478  -0.77109255 -0.56710027 -1.33455745
 -1.69088229 -0.95489863 -0.94542868 -0.29898286 -0.58262196 -1.86061877
 -0.52516429 -0.6276452 ]:0
[-0.49746901  0.62870766 -0.36532759 -0.04963323  0.01985201 -0.1840121
 -1.39095451 -0.78259261 -0.6796293  -0.16307486  0.15416161 -0.53385195
  0.45348962 -0.60094915]:1
[-0.25316966 -0.64699094 -0.36532759 -0.57216967  0.54479806  0.19015354
  0.95588294  0.50802424  0.32315927  0.08219661  0.4361092  -0.66419563
 -0.23472891 -0.05614227]:1
[-1.82774915  2.11114002 -0.80834215  1.61743752  0.20526873 -0.41400898
 -1.24147752 -1.61503208 -2.00747556 -2.01429051 -2.83735724 -2.45857675
 -2.97209724 -2.78069501]:0
[ 1.22638982  1.12856637  0.91427892  0.09980152 -0.07285635 -0.15540274
  0.40666455 -0.69699903 -0.88617038  0.0545903   0.17571982  0.97448311
 -0.00542213  0.59518963]:0
[-0.40244901  0.1977602  -0.3163704  -0.99475949  0.01985201  0.24737228
  1.60491496  0.68033026  0.55961716 -0.19015028 -0.14934419  0.50636164
  0.49911243 -0.28189241]:1
[2.1493279  1.61128131 3.74515634 3.38396972 4.98998336 4.5051193
 4.27699877 3.60673543 4.04089867 3.92106681 3.77425027 3.47130003
 2.7930748  2.33639447]:1
[0.43923241 0.37020641 0.39734861 0.07505745 0.63690441 0.93792387
 0.50647818 1.02438286 0.32315927 0.57220867 0.37101186 0.63619815
 0.33093424 0.46222773]:0
[-0.59248902 -1.21576091 -0.1440603  -0.29852942 -0.35098143 -0.24179181
 -1.6660506  -0.06539677 -0.14860586 -0.19015028  0.15416161 -0.79403214
 -0.21952131 -0.21554105]:0
[-0.13088764 -0.28495474 -1.52254113 -0.74634848 -0.96803383 -1.13316994
  0.38183287  0.27865583 -0.20786417 -0.87075208  0.00240871 -0.22194003
 -0.20431371 -0.24223711]:0
[-0.79602771 -1.21576091 -1.52254113 -1.29362899 -0.78261711 -0.55817775
 -0.94154975  0.50802424 -1.09271146 -0.43542176 -0.36619443 -1.21042188
 -0.86181885 -0.73391105]:1
[-1.92250447 -0.56093591 -1.32527246 -1.41783449 -0.31967731 -0.1262324
 -0.66694055 -0.2091716  -2.03681705 -1.46959672 -1.92683984 -1.5223338
 -2.20754251 -2.79417263]:1
[-0.68750903 -0.50916843 -0.48868051 -0.32327348  0.14326249 -0.1262324
 -0.71709081 -0.5817554  -0.59102951 -0.46249718 -1.14651714 -0.66419563
 -0.44882809 -0.69399656]:1
[ 0.80554911  1.45597887  1.03763184  1.54272015  0.85302326  0.59292856
 -0.16787242 -0.4670712  -0.23720566  0.38161893  0.24081717  0.0899719
  0.07121226  0.59518963]:1
[-0.36168833  0.50802892 -0.09462314  0.24923626 -0.07285635 -0.15540274
 -0.39233135 -1.04105164 -0.53234653 -1.22485613 -0.3226553  -0.27417893
  0.11683506 -0.22875949]:0
[-0.41594767 -1.19861713  0.05320837 -0.84580992  0.85302326  1.05292231
  1.13067851  0.70886145 -0.20786417  0.38161893  0.78273142  0.24618145
  0.60616202  0.28961052]:1
[-0.59248902 -0.21604348 -0.21797605 -0.79583661 -0.65920663 -0.1262324
 -0.39233135 -0.3238558  -1.00411166 -0.68016234 -0.45284998 -0.27417893
 -1.09112563 -0.46798724]:0
[ 0.3169504  -0.80195723  0.79140598  0.17451889  0.94573162  1.19709108
  0.78108737  1.11053587  0.47101737  1.79750426  1.17289277  0.89637834
  1.46255873  1.02051222]:1
[-0.66024702 -0.95725967 -0.63603204 -0.67163111  0.23597085  0.42015042
 -0.26768605  0.96732048  0.91344101  0.21810462 -0.0191495  -0.35228371
 -0.20431371 -0.42807275]:0
[-0.28016699 -0.85372471  0.05320837 -0.64640187 -0.44308779 -1.24816838
 -1.49125503 -0.12301859  0.58895865 -0.21722571  1.06467901  0.81827356
  0.07121226  0.28961052]:1
[-0.307429   -0.37100977 -0.80834215 -0.94527136 -0.19626683 -0.50039805
 -1.09151363 -0.72553023 -0.79757059 -0.29898286 -0.34421351 -0.95024169
 -0.60179867 -0.29537003]:1
[ 1.85076921  1.64590501  1.06211043  1.59269346 -0.72121287 -0.52900742
 -0.11772216 -0.4670712  -0.17794735 -0.27190744  0.34945364  0.79240769
  0.14754845  1.24652154]:0
[-0.09012697  1.16319008  0.24999707 -0.37276161 -0.07285635  0.27654261
 -0.09289048 -0.03686558  0.26447629 -0.43542176 -0.49596641  0.06410603
 -0.03583733 -0.3218069 ]:0
[-1.04032706 -0.7505259  -0.7099478  -0.69637517 -0.47439191  0.82292543
  1.10584683  0.99585167  1.23792338  0.59928409  0.04594785 -0.17020829
 -0.2654423  -0.44155037]:0
[-0.11738898 -0.19889971  0.10216556  0.79651677  0.14326249 -0.24179181
 -1.36612283 -0.03686558 -0.11926437  0.29986177  0.08906427  0.01186712
 -0.4029071  -0.21554105]:1
[-0.47020701  0.45626144 -0.85777931 -0.04963323  0.48279181  0.56375822
  1.10584683 -1.41419487 -0.79757059 -0.81660123 -0.49596641 -0.82040518
 -0.84631306 -0.73391105]:0
[ 0.00489304  1.85263878  0.20055991  1.46800278  0.35938133  0.59292856
 -0.09289048 -0.12301859  0.50035886  0.29986177 -0.1709024  -0.42988131
  0.20867705 -0.36172139]:0
[ 0.15417239  0.07708147  0.24999707 -0.1243506   0.72961278  0.65014729
  0.70610543 -0.00833439  0.0872767   0.54513325  0.95646524  0.01186712
  0.94281657  0.7548476 ]:1
[ 0.08614971  1.35278007  0.64357447  0.02508414  0.6062023   0.36237072
  0.00692315  0.36480884  0.9427825   0.21810462 -0.3226553   0.37601796
  0.17796366 -0.09579758]:0
[-2.24832518 -1.28467217 -2.28521733 -1.14419424 -0.53579615 -0.27040117
  0.18171872 -0.92636744 -0.79757059 -1.25193156 -1.34138646 -1.70440922
 -1.82496696 -2.0897078 ]:0
[-1.3526491  -1.78486703 -1.44862537 -1.4678078  -1.30756316 -0.21262147
 -0.61727718  0.65179907  1.23792338  0.3269372  -0.40931085 -0.58609086
 -1.16746182 -0.97313881]:1
[-0.57899036 -1.09508218 -0.41476475 -0.4974523  -0.19626683 -0.01123396
 -1.56575008 -0.3238558  -0.59102951 -0.32605829  0.04594785 -0.87213692
 -0.17360031 -0.42807275]:0
[-0.26666832 -0.28495474  0.07768697 -0.44747899 -0.19626683  0.07515511
 -0.36749967  0.96732048  0.73624143  0.62635952  0.2843563   0.45412273
  0.04049886 -0.08257914]:0
[0.47972841 0.07708147 0.84084314 0.12454558 1.19315458 0.53514886
 1.73004716 1.11053587 1.0313823  1.03514531 1.23799012 0.76654183
 0.743925   0.7149331 ]:1
[ 0.81904777  0.90435268  1.70191368  0.94595152  1.13114834  1.16792075
  0.75625569  0.59417725 -0.32580545  1.00753899  1.38974302  1.18242439
  0.78984599  0.7945029 ]:0
[0.66976843 1.45597887 0.15160272 0.57236465 1.00773786 0.73653636
 1.63023354 1.31137309 2.06408769 0.92631273 1.28152925 0.76654183
 0.80505359 0.51561984]:1
[ 0.14040904 -0.26781096 -0.19301749 -0.02440399 -0.65920663 -1.99649967
  0.6062918  -0.43854    -0.88617038 -0.73484408 -0.08424684 -0.79403214
  0.16275606  0.20978154]:0
[2.28510858 2.1282838  3.76963493 3.18504684 5.11339385 4.67789744
 3.57781649 3.3482764  3.50987523 3.92106681 4.1212952  3.62750958
 3.02238158 2.66866965]:1
[-0.33442632 -0.28495474 -0.07014454  0.02508414 -0.44308779 -0.24179181
 -1.11634532 -0.15154978 -0.50300504 -0.0813177  -1.5582367  -0.61195672
 -0.14288692 -0.08257914]:0
[-8.63785708e-01  8.17021032e-03 -5.62596260e-01  3.40077864e-04
  5.75500175e-01  6.78756660e-01  2.81532346e-01  1.92502824e-01
 -3.55146942e-01  7.08116674e-01 -2.35999741e-01 -1.15818297e+00
 -2.04313707e-01 -9.86357244e-01]:0
[ 0.73779111 -0.59522346  0.61909587 -0.04963323  1.31656506  1.08153168
  0.95588294  1.6268945   1.79828831  1.76989795  1.6716906   0.58446641
  2.22711346  1.77810998]:1
[ 1.40293117 -1.02617092  0.02824981  0.04982821  0.14326249 -1.0181715
 -0.4673133  -1.78677867 -1.88953428 -0.10839313  0.17571982  0.48049577
  0.51461822  1.45931243]:1
[ 0.3847084  -0.31957844  0.47126436  0.59759389  0.69891066  0.62153793
  0.50647818  0.90969866 -0.35514694  0.16395377  0.50120654  0.76654183
  0.36164763  0.15664861]:0
[ 0.28968839 -1.1125621   0.17608132 -0.67163111  0.14326249 -0.09762303
  1.30547408 -0.03686558 -0.41440525 -0.29898286  0.30591451  0.03824016
 -0.15839271  0.52883827]:1
[-0.64674836 -0.66413472 -0.75938496 -0.54694043 -0.04215423  0.04598477
 -0.34266799 -0.03686558 -0.41440525 -0.24483202 -0.10580505 -0.76816627
 -0.08175833 -0.80026241]:0
[ 1.02285113  0.61156388  0.37287001  0.64708202 -0.93733172 -0.44317931
  0.53130986 -0.41000881 -0.41440525 -0.19015028 -0.40931085  0.87051247
  0.23939044  0.63510412]:0
[-0.21240899  0.38735019 -0.29141184 -0.1243506  -0.41238567 -0.21262147
 -0.14255384  0.56564606 -0.32580545 -0.13546855 -0.10580505 -0.11796938
 -0.02062973 -0.14918969]:0
[-0.47020701 -0.09536475  0.12664416 -0.67163111  0.20526873  0.30515198
  0.70610543  0.0201968  -0.47308823  0.19102919  0.04594785  0.29842035
 -0.2654423  -0.21554105]:0
[-0.34818967 -0.06074104  0.79140598  0.82126083  0.20526873 -0.35679024
 -0.39233135 -0.2091716  -0.20786417 -0.81660123  0.21925896  0.45412273
 -0.29585751 -0.14918969]:0
[-0.45670834 -0.95725967 -0.46372194 -0.84580992 -0.44308779 -0.01123396
 -0.59195861 -0.38091819 -0.70897079 -0.3536646  -0.19246061 -1.10645124
 -0.46403569 -0.36172139]:0
[0.58851176 0.5251727  1.55456215 0.62233796 0.97703574 1.25430982
 0.70610543 0.79501446 0.32315927 0.98046357 1.06467901 0.9222442
 0.45348962 0.51561984]:0
[-0.51096768 -0.164276   -0.7099478  -1.19416755  0.14326249 -0.21262147
  1.45543797  0.33627765  0.67755845 -0.19015028 -0.34421351  0.27204731
  0.43798383 -0.29537003]:1
[-0.44320968 -0.37100977 -0.48868051 -0.52219636 -0.41238567 -0.1262324
 -0.39233135 -0.41000881 -0.91551187 -0.51664802  0.04594785 -0.45625435
 -0.06655073 -0.90678745]:0
[-2.4656272  -1.31929587 -2.23626014 -0.89529805 -0.19626683 -0.15540274
  0.03224173 -0.12301859  0.05793521 -1.14309898 -1.73154781 -1.75664813
 -2.22275012 -2.40850535]:1
[-0.32092766 -0.164276   -0.53763769 -0.29852942 -0.72121287  0.21876291
 -0.09289048 -0.84021443 -0.65028781  0.10927204 -0.27953887 -0.11796938
 -0.29585751  0.20978154]:0
[-1.29838976  0.23204775 -1.54701972 -0.0743773   0.14326249 -1.19094964
 -1.16649558 -0.35238699 -1.29925254 -1.14309898 -1.23317269 -1.15818297
 -1.76383837 -1.82378398]:0
[-0.75526703 -0.14713223 -0.53763769 -0.6216578   0.08125625 -0.1262324
  0.2070373   0.53711486  0.38241758 -0.38074002 -0.56106375 -0.50798608
 -0.61700627 -0.73391105]:0
[ 1.8235072  -0.88834841  0.05320837  0.04982821  0.17396461 -0.75956526
 -0.11772216 -1.15573584 -1.35851084  0.24518004  0.26279809  0.402391
  0.60616202  1.59201515]:1
[ 0.28968839 -0.21604348 -0.07014454  0.54762058 -0.84462335  0.24737228
 -0.59195861  0.47949305  0.44167588  0.21810462  0.54432297  0.63619815
  0.52982582  0.26291446]:0
[ 0.7105291   0.1977602   1.23442053  0.67182609 -0.07285635 -0.06901367
 -0.71709081 -0.38091819 -0.00132309  0.02751488  0.32747272  0.22031558
 -0.08175833 -0.04266465]:1
[-1.0945864  -0.59522346 -0.7099478  -0.29852942 -0.16556471 -0.90317306
 -1.31645946 -0.84021443 -0.94542868 -1.60603561 -0.66970023 -1.10645124
 -1.10633323 -0.99983486]:0
[ 0.18116972  0.04245776  0.07768697  0.09980152  0.39008345 -0.1840121
 -0.39233135  0.56564606 -0.14860586  0.43576978 -0.14934419  0.06410603
  0.28501325  0.22299997]:1
[-0.90454638 -1.16399343 -1.57149832 -1.26888492 -1.86321132 -0.32761991
 -0.74192249 -0.0944874  -0.29646396 -0.05424228 -0.10580505 -0.56022499
 -0.2806499  -0.65408207]:0
[0.47972841 0.50802892 1.23442053 0.87123414 0.29737509 0.44875979
 0.63112349 0.99585167 1.06072379 0.81694925 0.21925896 0.50636164
 0.22388465 0.35596188]:1
[-0.10389031 -0.11250852 -0.07014454 -0.09912136  0.82232114  0.44875979
  0.38183287 -0.12301859  0.32315927  0.68104125  0.69607587 -0.87213692
  0.6675888   0.46222773]:1
[-4.15947669e-01 -5.78079686e-01 -4.56659487e-02 -1.24365568e+00
 -8.75325474e-01 -9.76230345e-02 -1.04185027e+00 -2.37702792e-01
 -5.61688019e-01  4.39455534e-04 -3.01097085e-01 -2.47805893e-01
 -2.65442302e-01 -1.75626560e-01]:1
[ 0.0183917  -0.1296523   0.00377121 -0.6216578  -0.16556471  0.07515511
 -0.14255384 -0.29532461  0.2351348  -0.38074002 -1.14651714 -0.27417893
 -0.3417785  -0.17562656]:1
[-0.78252904 -0.85372471 -0.93169506 -0.59691373 -1.18415268 -0.21262147
 -1.01653169 -0.81168324 -0.44374674 -0.10839313 -0.19246061 -0.58609086
  0.16275606 -0.54781622]:0
[2.25784658 1.88726248 4.23712808 3.53340447 5.20610221 4.73511618
 4.40164407 3.80757264 4.12949846 4.32932171 4.22950897 3.73148022
 3.06830257 2.50927087]:1
[ 2.1493279   0.83544142  0.71749022  0.49764727 -0.81392123 -0.32761991
 -0.8670547   0.0201968   0.41175907  0.73572299  1.73678795  1.54657523
  1.73778651  2.32317604]:1
[-0.03586763 -0.97440344 -0.29141184 -0.4974523  -0.13486259 -0.32761991
 -0.21753578  1.45514791  1.59232255  0.89870641  0.37101186  0.22031558
 -0.20431371 -0.08257914]:1
[-1.88200848  1.28386881 -0.78386355  1.31905321 -0.13486259 -0.32761991
 -0.94154975 -1.24188885 -1.29925254 -1.4425213  -2.55540965 -2.06856005
 -2.95659145 -2.59460018]:0
[-1.24386575 -0.35386599 -0.26693324 -0.0743773   0.08125625  0.56375822
  1.0060332  -0.3238558  -1.24056956 -2.01429051 -0.75635578 -0.42988131
 -1.62637357 -0.82695847]:1
[-0.55172835  0.11136902  0.05320837  0.62233796  1.25455882  0.76514573
 -0.09289048 -0.00833439 -0.03066458  0.08219661 -0.08424684 -0.74230041
 -0.12767932 -0.72069262]:0
[-0.76903038  0.37020641 -1.35023102 -0.47270823 -0.59780239 -0.47178868
 -1.76586423 -1.15573584 -1.09271146 -0.81660123 -0.77791399 -1.67854335
 -0.00542213 -0.82695847]:1
[ 1.19912781  1.1114226   0.88980033  0.32395364 -0.50509403 -0.24179181
  0.00692315  0.13544044 -0.38448843 -0.59840518  0.15416161  0.61033228
 -0.55587768  0.7149331 ]:0
[ 2.96374731  3.09371367  1.50512499  2.86143328  0.20526873  0.13237384
 -0.24236747 -0.69699903 -0.23720566 -1.25193156  0.32747272  0.5322275
  0.65208301  2.05725223]:0
[ 0.03189037  0.00817021  0.71749022  0.12454558  0.01985201  0.27654261
 -0.96686832  0.47949305  0.82484122  0.43576978 -0.30109708  0.22031558
  0.23939044  0.38265793]:0
[-0.94530705 -1.0779384   0.15160272  0.59759389 -0.04215423  0.50653949
 -0.76675418 -0.15154978 -0.17794735 -0.70723776 -0.62616109 -0.01399874
 -0.46403569 -1.29219555]:0
[-1.30887641e-01  5.94083955e-01  5.45180118e-01  3.40077864e-04
 -8.44623354e-01  5.35148856e-01  1.18082877e+00 -3.23855802e-01
 -1.32309005e-03 -1.63074861e-01 -6.26886304e-02  6.36198146e-01
 -3.26570898e-01  1.69867047e-01]:0
[-0.11738898  0.40449397  0.15160272 -0.24855611 -0.9066296   0.27654261
  0.48164649 -0.03686558  0.35307609  0.10927204 -0.19246061  0.24618145
 -0.37249189  0.07681963]:0
[-0.375187   -2.09513576 -1.2513567  -1.54252517 -0.56710027 -0.84539336
 -0.11772216 -0.43854    -0.70897079 -0.4895726  -0.45284998 -0.58609086
 -0.57108528 -0.57451228]:1
[-0.17164831 -0.21604348 -0.8822579   0.07505745 -0.62850451 -0.67317619
 -0.74192249 -1.29951067 -0.50300504 -1.06134182 -0.9512251  -0.82040518
 -0.64771967 -0.08257914]:1
[-1.73272914  1.52522628 -1.57149832  0.64708202 -0.50509403 -0.15540274
 -0.74192249 -1.9305535  -1.91887577 -1.76901904 -2.85891545 -2.51081566
 -3.01772005 -2.62129623]:0
[ 0.2491924  -0.02645349  0.39734861 -0.54694043 -0.25827307 -0.01123396
 -0.44248162  0.16397163  0.35307609  0.51752694  0.54432297  0.50636164
  0.11683506  0.03690514]:1
[-1.63770913  0.81829765 -1.49758256  0.07505745 -0.04215423 -0.84539336
 -0.96686832 -1.9305535  -2.44989921 -4.13785306 -3.79099105 -2.48494979
 -4.22597892 -2.63451467]:0
[-5.24466343e-01 -5.78079686e-01  2.00559910e-01  3.40077864e-04
 -6.28504513e-01 -6.15396487e-01 -8.41736120e-01 -5.53224206e-01
 -5.91029510e-01 -4.62497180e-01 -8.21453126e-01 -9.76107557e-01
 -6.01798673e-01 -5.74512277e-01]:0
[-0.57899036 -0.30209851 -0.63603204 -0.29852942  0.23597085 -0.01123396
 -0.44248162 -0.38091819 -0.14860586 -0.57132976 -0.25755795 -0.92437582
 -0.3569861  -0.58773071]:0
[ 0.45273108 -0.1296523   0.24999707  0.09980152 -0.19626683 -1.93871997
  0.68127375  0.39334004  0.38241758  0.59928409  0.65295944  0.35015209
  0.86618219  0.70171467]:0
[0.39847174 0.59408395 0.54518012 0.02508414 0.26667297 0.33376135
 2.12930167 0.68033026 1.53306425 0.87163099 0.80471234 1.10431962
 0.6827964  0.34274344]:1
[-0.41594767  0.04245776 -0.09462314  0.12454558  0.14326249 -0.1840121
 -0.09289048  0.25012464  0.52970035 -0.51664802  0.21925896 -0.45625435
 -0.38769949 -0.08257914]:0
[ 0.2491924   0.42197389 -0.16853889  0.32395364  0.08125625  0.73653636
  0.48164649 -0.00833439  0.70689994  1.11637157  0.4361092   0.55809337
  0.19346945  0.54205671]:0
[-0.09012697 -0.14713223 -0.07014454 -0.09912136 -0.31967731  0.21876291
 -0.69225913  0.30718703 -0.06000607  0.78987383  0.2843563  -0.06573048
  0.10162746  0.0636012 ]:1
[ 2.21735058  2.23181876  0.86532173  0.99543965 -0.25827307 -0.21262147
 -0.66694055  0.33627765  0.35307609  0.51752694  1.06467901  0.9222442
  0.43798383  1.59201515]:0
[-0.49746901  0.59408395 -0.04566595  0.59759389 -0.16556471  0.62153793
 -0.96686832 -0.18064041 -0.08992288 -0.3536646  -0.30109708 -0.87213692
 -0.52516429 -0.69399656]:0
[-0.85028704 -1.18147336 -0.8822579  -1.0447328  -0.9066296  -0.61539649
  0.63112349 -0.0944874   0.29381778 -0.32605829 -0.04070771 -0.48212022
 -0.60179867 -0.66755969]:0
[-0.40244901  0.57694018 -0.36532759  0.59759389  1.25455882  0.8515348
  0.18171872  0.82354565 -0.23720566 -0.27190744 -0.04070771 -0.89800278
 -0.41841289 -0.40163588]:0
[ 0.04538903  0.00817021  0.07768697  0.8460049  -0.28897519 -0.06901367
  0.75625569  0.88116747  0.64764163 -0.19015028 -0.99476424 -0.01399874
 -0.11247172 -0.04266465]:1
[-0.47020701 -0.31957844 -0.61155345 -1.06947686 -0.72121287 -0.75956526
 -1.76586423 -0.72553023 -0.88617038 -0.16307486 -0.51794733 -0.74230041
 -0.3417785  -0.34850296]:1
[ 0.0183917  -1.1125621   0.15160272  0.04982821  0.69891066  0.65014729
  0.70610543  1.22522007  0.85418271  1.08929615  0.93448432  0.24618145
  1.00394517  0.80798052]:1
[ 0.15417239  0.12884894  0.07768697 -0.6216578  -0.50509403 -0.96095277
 -1.49125503 -0.89783625 -0.62094632 -0.65308692  0.00240871 -0.27417893
 -0.00542213 -0.25545554]:1
[ 2.76020863e+00  1.00788764e+00  6.43574467e-01 -9.91213612e-02
 -1.18415268e+00 -7.59565260e-01 -7.41922493e-01  2.01968033e-02
 -1.32309005e-03  7.35722987e-01  1.91009906e+00  1.49484349e+00
  2.21190586e+00  3.13390672e+00]:1
[-1.01332973 -1.30215209 -0.93169506 -1.31837305 -0.50509403 -0.29901054
 -0.24236747 -0.52469301 -0.7682291  -0.16307486 -0.27953887 -0.82040518
 -0.21952131 -0.58773071]:1
[ 0.12691038 -0.42277725  0.86532173  0.02508414 -0.81392123  0.27654261
 -0.01790853  0.25012464  0.1758765   0.08219661  0.60942031  0.58446641
  0.48390482  0.24969603]:0
[-2.39760452 -1.4053509  -2.16234438 -0.97001543 -0.41238567 -0.27040117
 -0.01790853 -0.81168324 -0.23720566 -0.70723776 -1.21161448 -1.75664813
 -1.71791737 -2.18275521]:1
[-0.22590765 -0.06074104 -0.9067365  -0.14909467 -1.40027152 -1.50733559
  0.78108737 -0.29532461 -0.65028781 -0.84367666 -1.42804201 -0.50798608
 -0.63221388 -0.41485432]:0
[ 0.43923241  0.66333136  1.28385769  0.8460049  -0.01085011 -0.09762303
  0.68127375  0.07781862 -0.44374674  0.84455557  0.56588118  1.07845375
  0.56053921  0.32952501]:1
[ 0.03189037 -0.11250852  0.02824981  0.3486977   0.17396461  0.24737228
 -0.99170001  0.73795208  0.47101737  0.92631273  0.30591451  0.19394254
  0.22388465  0.10351569]:1
[-1.01332973 -0.95725967 -1.27631527 -0.1985828  -1.523682   -0.50039805
 -1.61590034 -1.06958283 -0.85682889 -1.11602355 -0.99476424 -1.26215361
 -0.21952131 -1.17245208]:1
[-0.26666832 -0.62984717  0.17608132 -0.37276161 -0.44308779 -1.27733871
 -1.41627309 -0.18064041  0.02859372 -0.19015028  1.0431208   1.15655853
  0.10162746  0.14343018]:1
[-0.307429    0.38735019  0.29895426  0.14977483  0.79161902  0.76514573
  0.40666455  1.08200468  0.61830014  0.40869436  0.06750606  0.03824016
 -0.15839271 -0.24223711]:0
[ 0.3169504  -0.47454473 -0.43924334 -0.79583661 -0.75191499 -0.24179181
 -0.14255384  0.65179907 -0.26654715 -0.29898286 -0.12778597 -0.17020829
 -0.57108528  0.28961052]:1
[-0.51096768 -1.49174208 -0.5131591  -0.64640187 -0.69051075 -0.55817775
 -1.46593645 -0.06539677 -0.41440525 -0.32605829  0.06750606 -0.74230041
 -0.3265709  -0.40163588]:0
[-1.01332973 -1.4399746   0.07768697  0.19926296 -0.47439191  0.30515198
 -0.79207275 -0.38091819  0.2351348  -0.68016234 -0.66970023  0.11634494
 -0.54067008 -1.09288228]:0
[-0.85028704  0.02531399 -1.66989267 -0.74634848 -1.24615892 -1.19094964
 -0.66694055 -0.2091716  -1.26991105 -1.38783956 -0.77791399 -1.49646794
 -0.73926347 -0.98635724]:0
[-0.21240899 -0.33672222 -0.58707485 -0.67163111 -0.31967731 -0.21262147
 -0.69225913  0.65179907  0.20521799  0.40869436 -0.9512251  -0.58609086
 -0.11247172 -0.40163588]:1
[ 0.05915238 -2.23295827 -0.83330071 -1.66673068 -0.65920663 -0.78817463
  0.83123763  1.3689949   1.91680491  1.74282253  2.38691597  1.57244109
  2.39529164  0.74136998]:1
[-0.83678838  0.1631365  -0.6854692  -1.14419424  0.20526873  0.07515511
  1.40528771  1.2543107   1.1792404   0.0545903   0.1326034   0.27204731
  0.19346945 -0.68077813]:1
[-4.43209678e-01 -5.60935911e-01  3.77121198e-03  3.40077864e-04
 -4.43087791e-01  4.77930121e-01 -1.42553841e-01  4.79493046e-01
  2.05217988e-01 -2.44832019e-01 -1.92460608e-01 -1.17969385e-01
 -5.71085281e-01 -2.81892410e-01]:0
[ 0.22193039 -1.49174208 -0.16853889 -1.49255186 -0.87532547 -1.30594808
  0.90573268  0.07781862  0.14653501  0.46337609  1.54149592  0.55809337
  1.7225789   1.19338862]:1
[-0.64674836 -0.7159022  -0.95617366 -0.74634848 -0.62850451 -0.75956526
 -0.56712692  0.53711486  0.79549973  0.16395377  0.39257007 -0.40401544
 -0.2654423  -0.48146486]:1
[ 2.06780656 -0.59522346  0.39734861 -0.79583661 -1.09144432 -1.42094652
  0.45632792  0.68033026  1.26726487  1.27988589  2.90727201  1.83262128
  3.8328573   3.2137357 ]:0
[-0.03586763 -0.33672222  0.17608132 -0.67163111  0.48279181  0.39154105
  1.18082877  0.27865583 -0.8274874  -0.59840518  0.11104519 -0.11796938
 -0.06655073  0.20978154]:1
[ 0.11341171 -0.78481345  0.66853303 -0.39799086  1.10044622  0.9093145
  0.880901    1.16815769  0.55961716  1.47047563  1.25954833  0.50636164
  1.30958815  0.90102794]:1
[-0.60598769  0.43911767  0.10216556  0.27398033  0.6062023   0.39154105
  0.58146012  0.59417725 -0.14860586 -0.29898286 -0.40931085  0.03824016
 -1.21338282 -0.28189241]:0
[-0.19891032 -0.7505259  -0.5131591  -0.67163111  0.11256037 -0.1262324
 -1.01653169 -0.35238699 -0.97477017 -0.27190744 -0.23599974 -0.22194003
 -0.2806499  -0.21554105]:1
[-4.70207006e-01 -6.12367238e-01 -2.07073822e-02  3.40077864e-04
 -9.06629596e-01 -5.29007417e-01 -1.42553841e-01 -2.95324610e-01
 -1.24056956e+00 -3.26058286e-01  2.39669248e-02 -2.74178934e-01
 -1.73600315e-01 -7.87043978e-01]:0
[-0.72826971 -0.69875842 -0.16853889 -0.37276161 -0.87532547 -0.1262324
  0.45632792 -0.29532461 -0.47308823 -0.6260115  -0.66970023 -0.42988131
 -0.52516429 -0.69399656]:0
[ 0.04538903 -0.37100977  0.66853303 -0.4974523  -0.28897519 -0.06901367
  0.40666455 -0.06539677  0.0872767   0.73572299  0.11104519  0.66206401
 -0.23472891  0.39587637]:0
[-1.08108773 -0.42277725 -0.85777931 -0.74634848  0.05055413  0.10376447
  0.08190509  0.47949305 -0.03066458  0.10927204  0.02396692 -0.82040518
 -0.3417785  -1.06618622]:0
[-0.375187    0.23204775 -0.7099478  -0.99475949  0.45208969  0.07515511
  1.70521548  0.85263628  1.11998209  0.08219661 -0.1709024   0.14221081
  0.52982582 -0.40163588]:1
[ 0.49349175 -0.90549219  0.71749022 -0.79583661  0.29737509  0.24737228
  1.58008328  0.45096185  0.20521799  0.46337609  0.99958166  0.84413943
  0.48390482  0.80798052]:1
[-0.25316966 -0.21604348 -0.73442639 -0.17383874  0.14326249  0.04598477
 -0.41716304  0.16397163 -0.7682291  -0.29898286 -0.3226553  -0.42988131
 -0.43362049 -0.46798724]:1
[ 1.51144985 -0.50916843  1.11154759  0.92072227  0.88432738  0.79431607
  0.65644206  0.04928743  0.55961716  1.63398994  0.91292611  1.39036568
  0.98843938  1.25973998]:1
[2.59716594 2.80058873 4.82797415 4.62796547 6.00917333 6.2312178
 4.1022032  5.4137109  5.78182708 5.9628722  4.98827346 5.37015896
 3.32832275 2.66866965]:0
[ 0.56124975 -0.04359727  1.57904074  0.89597821  2.05702794  2.03125048
  1.87952416  2.08619074  1.71026383  0.81694925 -0.0191495   1.31276808
  0.25459804  0.42257242]:1
[ 4.25469071e-01  9.21832607e-01  2.82498061e-02 -5.72169669e-01
  1.73964612e-01  7.51551057e-02  1.55525159e+00  1.08200468e+00
  1.35586466e+00  4.39455534e-04  8.47828764e-01  7.92407695e-01
  3.46440031e-01  2.89610518e-01]:1
[2.10856723 2.42140875 4.04033938 3.45868709 4.21821636 5.36788807
 3.45268428 3.86463502 3.42127544 4.19288281 3.62249737 4.14736278
 2.41079743 1.91107189]:0
[0.07265104 0.71476269 0.56965871 0.8460049  3.10692003 2.31902706
 1.65506522 2.28702795 2.06408769 1.68814079 0.54432297 0.16807667
 1.08028137 0.44900929]:1
[1.00908779 0.66333136 1.60351934 1.46800278 1.00773786 0.93792387
 1.73004716 0.39334004 0.44167588 0.43576978 1.32464567 1.10431962
 0.63687541 1.14025569]:1
[-0.18514698 -1.23324084  0.00377121 -0.87055399 -0.07285635  0.30515198
 -0.09289048  0.39334004  0.52970035  0.46337609  0.34945364  0.27204731
  0.7591326   0.30282895]:0
[-0.7010077  -0.88834841 -0.58707485 -1.26888492 -0.62850451 -0.1262324
 -0.44248162 -0.35238699 -0.56168802 -0.57132976 -0.34421351 -0.61195672
 -0.37249189 -0.82695847]:0
[ 0.73779111 -0.88834841  0.05320837 -0.87055399 -0.81392123  0.27654261
  1.65506522  0.62270844  0.38241758 -0.59840518 -0.58262196  1.26052917
  0.51461822  0.64832256]:1
[ 0.3847084  -0.00897357  0.86532173  0.89597821 -0.75191499 -0.38539961
 -0.29251773  0.70886145  0.52970035 -0.29898286 -0.4744082   0.32428622
  0.00978547  0.16986705]:1
[ 1.94578922  1.95617374  0.71749022  0.24923626 -0.10355847  0.33376135
 -0.01790853 -0.61084602 -0.97477017  0.21810462  0.37101186  0.79240769
  0.49911243  1.24652154]:0
[ 0.20843172  0.02531399  0.37287001  0.09980152 -0.65920663 -1.0759512
 -0.26768605 -1.41419487 -1.41719382 -1.0342664  -2.62050699  0.01186712
 -0.3569861  -0.16240812]:0
[ 0.33044906  0.5251727   0.10216556 -0.54694043  0.11256037  0.82292543
  0.55662844  0.88116747  1.23792338  1.63398994  1.0431208   0.74016879
  0.48390482  0.07681963]:0
[-0.19891032 -0.1296523   0.00377121 -0.02440399 -0.41238567 -0.96095277
 -1.09151363 -0.15154978 -0.38448843 -0.19015028 -0.27953887 -0.37814958
 -0.84631306 -0.22875949]:1
[ 1.26910378e-01 -7.67669676e-01 -1.44060298e-01 -1.41783449e+00
 -7.51914993e-01 -2.12621472e-01  1.43011939e+00  8.81167469e-01
  1.03138230e+00  4.39455534e-04 -7.99472205e-01  1.28639503e+00
  5.45033419e-01  4.35790858e-01]:1
[-1.16260908  0.07708147 -0.11910173  0.69705533  0.01985201  0.42015042
  1.77971053 -0.61084602  0.20521799 -1.66018646 -1.57979491 -0.37814958
 -1.96272994 -1.75743262]:0
[-0.14465099  0.23204775 -0.26693324 -0.39799086  0.39008345 -2.31288562
  1.70521548  0.59417725 -0.23720566 -0.02663597 -0.21444153 -0.35228371
 -0.47954148 -0.41485432]:0
[-0.38895034 -0.59522346 -1.17792092 -0.27330017 -0.78261711 -0.24179181
 -0.14255384 -0.81168324 -0.08992288 -0.19015028 -0.27953887 -0.56022499
 -0.09726412 -0.37493983]:0
[-0.75526703 -1.57779711  0.05320837 -0.34801755 -1.33886728 -0.15540274
 -0.66694055  1.19668888  0.82484122  0.3269372  -0.23599974  0.32428622
 -0.61700627 -0.40163588]:1
[-0.59248902 -0.73304597 -0.02070738 -0.6216578   0.35938133  0.0173754
 -0.06805879  0.16397163 -0.41440525 -0.3536646  -0.04070771 -0.22194003
 -0.06655073 -0.48146486]:0
[-0.28016699 -0.07822097  0.54518012 -0.67163111  0.32867921  0.707927
  0.78108737  0.47949305  0.79549973  1.06222073  0.739615    0.66206401
  0.14754845  0.07681963]:0
[ 0.0183917   0.18061642 -0.29141184  0.12454558 -0.01085011 -2.57149186
  0.58146012 -0.49616182 -0.11926437  0.24518004 -0.1709024   0.03824016
 -0.14288692 -0.17562656]:0
[-0.29393033  0.45626144 -0.6854692  -0.54694043  0.57550018  0.56375822
  0.28153235 -1.01252045 -1.06336997 -0.68016234 -0.36619443 -1.3924973
 -0.38769949 -0.22875949]:1
[-0.26666832  0.90435268  0.29895426  0.07505745  1.13114834  1.05292231
  0.63112349  1.16815769  1.23792338  0.98046357  0.34945364  0.66206401
 -0.64771967 -0.22875949]:0
[ 0.28968839  1.69733634  0.00377121  0.2987244   0.6062023   0.707927
  0.23186898  0.04928743  1.0313823   0.73572299  0.50120654 -0.06573048
  0.62166781  0.15664861]:0
[ 0.16767105  0.87006513  0.15160272  0.74654346  0.66820854  0.13237384
  0.23186898  0.19250282  0.38241758  0.59928409  0.26279809  0.22031558
  0.37685523 -0.1092752 ]:1
[ 2.20358724 -0.64699094  1.72687225  0.44815914  0.14326249  0.16098321
  0.63112349 -0.06539677  0.35307609  2.5322569   1.8234435   2.06693561
  2.01301428  2.09716672]:1
[1.67422786 2.14576373 3.32662037 3.20979091 3.29233675 3.87234741
 2.05431973 3.11890799 2.77231071 3.18578328 2.77707732 2.92507378
 1.87554949 1.53888222]:0
[-0.93180839 -0.68127849 -0.75938496 -0.6216578  -0.59780239  0.50653949
  0.38183287  0.07781862  0.58895865 -0.40781544 -0.69125844 -0.61195672
 -0.61700627 -0.69399656]:0
[ 0.20843172 -0.68127849  0.86532173  0.47290321 -1.40027152  0.47793012
 -0.16787242  0.62270844  1.0313823   0.84455557  1.02113987  1.28639503
  0.88138979  0.36918031]:0
[-0.29393033 -0.1296523  -0.09462314 -0.69637517 -0.38168355 -0.32761991
 -0.76675418 -0.12301859  0.20521799  0.08219661  0.24081717  0.11634494
  0.16275606 -0.08257914]:0
[2.05430789 1.69733634 3.81907209 3.11032947 4.86657288 4.47650994
 3.92740763 4.32393126 4.24743975 3.94814223 3.99110051 3.65337544
 2.68602521 2.42944189]:1
[-0.17164831  0.30129516  0.10216556  1.04541296 -0.50509403 -0.61539649
 -0.29251773 -0.52469301 -0.06000607 -0.7619195  -0.73437486  0.06410603
 -0.70884826 -0.29537003]:1
[-2.53169659e-01  3.35582710e-01 -2.66933241e-01  3.40077864e-04
 -4.12385671e-01  1.73754030e-02  8.80900999e-01  2.21034015e-01
  8.72767037e-02 -2.17225706e-01 -2.79538873e-01 -1.70208292e-01
 -6.62927268e-01 -3.35025336e-01]:0
[-0.75526703  0.43911767 -0.1440603   0.87123414  0.45208969  0.56375822
  1.65506522 -0.92636744  0.0872767  -1.11602355 -0.82145313 -0.22194003
 -1.01478943 -0.85339534]:0
[-0.55172835 -0.21604348 -0.09462314 -0.09912136 -0.13486259 -0.0404043
 -0.4673133  -0.03686558 -0.23720566 -0.16307486 -0.23599974 -0.53385195
 -0.24993651 -0.60094915]:0
[ 1.97278655 -0.30209851 -0.16853889 -0.04963323  0.57550018 -0.81678399
 -0.06805879 -1.49978845 -0.88617038 -0.27190744  0.37101186  0.29842035
  0.46869722  1.64540726]:1
[ 0.41197041  0.93897638  0.69301163  0.12454558  0.20526873 -0.09762303
 -0.09289048 -0.72553023 -0.23720566 -0.43542176  0.41412828  0.74016879
  0.46869722  0.36918031]:1
[-0.19891032 -0.3884897  -0.58707485 -0.42273492  0.35938133  0.07515511
 -1.04185027 -0.0944874   0.05793521  0.43576978 -0.04070771 -0.3000448
 -0.00542213 -0.06936071]:1
[-0.40244901 -0.164276   -0.3163704  -0.99475949 -0.13486259  0.04598477
 -0.64210887 -0.26623398 -0.44374674 -0.19015028 -0.82145313 -1.5223338
 -0.75476926 -0.3218069 ]:0
[ 0.53425242 -1.25038461 -0.56259626 -0.29852942 -1.0607422  -1.10456057
 -0.31734941 -0.00833439  0.61830014  1.68814079  0.30591451  0.94861724
  3.00717398  1.57879671]:1
[-0.59248902 -1.83629836 -0.93169506 -2.16452305 -1.523682   -1.99649967
  0.00692315 -0.52469301 -0.50300504 -0.21722571  0.34945364  0.16807667
  0.89689558  0.60866725]:1
[-0.32092766 -0.73304597  0.29895426  0.74654346  0.45208969  0.21876291
 -0.09289048 -0.2091716  -0.85682889 -1.0342664  -0.64771931 -0.45625435
 -0.55587768 -0.64086364]:0
[ 1.64723053 -0.94011589 -0.09462314 -0.02440399  0.11256037 -0.67317619
 -0.14255384 -0.84021443 -0.73888761  0.16395377  0.30591451  0.37601796
  0.52982582  1.51244535]:1
[ 3.34382735  2.55956741  2.34219691  2.36412608 -0.72121287 -1.27733871
 -1.06668195 -0.69699903 -0.79757059 -0.57132976  0.82627055  2.09280147
  1.44735113  3.02764087]:0
[-0.11738898 -0.56093591  0.71749022 -0.09912136 -0.44308779 -0.75956526
 -0.56712692 -0.0944874  -0.20786417 -0.65308692 -0.25755795  0.48049577
 -0.21952131 -0.22875949]:1
[-0.13088764 -0.1296523  -0.02070738 -0.0743773  -0.99873595 -0.75956526
 -0.1927041  -0.78259261 -0.32580545 -0.10839313 -0.45284998  0.06410603
 -0.11247172  0.2761329 ]:0
[-0.06312964 -0.44025718 -0.75938496 -0.6216578  -0.84462335 -1.47872622
  0.38183287 -0.92636744 -1.26991105 -0.87075208 -0.3226553  -0.42988131
 -0.2806499   0.15664861]:1
[-0.52446634  0.83544142  0.29895426  0.79651677  1.77950486  1.42708796
  0.880901    1.85682234  1.44446445  0.95338815  0.8913679   0.27204731
  0.62166781 -0.29537003]:0
[ 1.94578922  1.8008713   0.86532173  0.79651677 -1.43097364 -0.73039492
 -0.54229524 -0.2091716  -0.44374674  0.08219661  0.99958166  0.79240769
  1.04986616  1.75167311]:0
[-0.41594767  0.90435268  0.84084314  1.16961846  2.14973631  1.5998661
  0.98071462  1.59836331  0.97269932  0.73572299  0.84782876  0.42825686
  0.698004   -0.01622778]:0
[ 0.09991305  0.00817021  0.52070152 -0.24855611  1.2238567   0.59292856
  1.80502911  0.70886145  0.61830014  0.70811667  0.93448432  0.402391
  0.42277623  0.64832256]:1
[ 0.52048908 -1.4399746  -0.29141184 -0.92052729 -0.28897519 -1.19094964
 -0.24236747 -0.52469301 -0.35514694  0.10927204  0.08906427  0.35015209
 -0.09726412  0.42257242]:1
[-0.53822969 -0.59522346 -0.07014454 -0.87055399 -0.65920663 -1.0759512
 -1.56575008 -0.41000881 -0.44374674 -0.43542176  0.24081717  0.11634494
 -0.12767932 -0.13571207]:1
[ 0.27618972  0.97360009 -0.16853889  0.97069558 -0.50509403 -0.58678712
 -1.06668195 -1.75824748 -1.71233469 -2.39546999 -1.51512028 -0.71592737
 -1.27451141 -0.09579758]:1
[-0.18514698 -0.50916843 -0.02070738 -0.27330017  0.11256037 -0.15540274
 -0.21753578  0.16397163  0.82484122  0.10927204 -0.75635578 -0.17020829
 -0.2806499  -0.40163588]:1
[ 4.32102477  4.90389469  2.36667551  2.86143328 -0.65920663 -1.96732934
 -0.26768605 -0.78259261 -0.26654715 -0.87075208  0.82627055  1.67641173
  1.00394517  3.34669761]:0
[-0.7010077  -0.30209851 -0.9067365  -0.74634848 -0.87532547 -0.47178868
 -0.79207275  0.16397163  0.05793521 -0.13546855  0.08906427 -0.56022499
  0.10162746 -0.50790173]:0
[-0.72826971 -0.88834841 -0.75938496 -0.74634848 -0.78261711 -0.27040117
 -1.04185027 -0.00833439 -0.06000607 -0.10839313 -0.99476424 -1.05421233
 -0.47954148 -0.48146486]:0
[-0.26666832 -0.23318726 -0.6854692   0.3486977  -0.84462335 -1.04678087
 -0.79207275 -1.52887907 -0.56168802 -1.38783956 -0.92966689 -1.31439252
 -0.78518446 -0.34850296]:1
[-0.307429   -0.47454473  0.12664416 -0.42273492  0.05055413 -0.1262324
 -0.81690444  0.04928743 -0.44374674  0.24518004  0.06750606 -0.63832977
 -0.05134312 -0.14918969]:0
[-0.59248902 -0.21604348 -0.93169506 -0.29852942 -0.69051075  0.0173754
  0.30685092 -0.89783625 -0.44374674  0.29986177 -0.34421351 -0.48212022
 -0.3113633  -0.58773071]:1
[-0.51096768 -1.30215209 -1.32527246 -0.67163111 -0.75191499 -0.93178243
 -0.04274021 -0.41000881 -0.26654715 -0.0813177  -0.56106375  0.06410603
  0.05570647  0.07681963]:1
[-0.94530705  0.40449397 -1.59597691 -0.54694043  0.32867921 -0.21262147
  0.10673678  0.76648327 -0.06000607  0.40869436 -0.25755795 -0.74230041
 -0.93815504 -0.89330983]:0
[-0.59248902 -0.59522346 -0.340849   -0.0743773   0.26667297 -0.15540274
 -0.1927041  -0.3238558  -0.97477017 -0.68016234 -0.14934419 -0.63832977
 -0.05134312 -0.57451228]:0
[-0.15814965  0.40449397 -0.04566595  0.67182609  0.57550018  0.707927
  0.93105126 -0.18064041 -0.08992288 -0.57132976  0.02396692 -0.61195672
 -0.58659107 -0.1092752 ]:1
[-0.55172835 -0.1296523   0.00377121 -0.04963323 -1.0607422  -0.93178243
 -1.59106866 -1.44272606 -1.47645212 -0.95250924 -0.38775264 -0.35228371
  0.08641986 -0.44155037]:1
[-0.44320968  0.30129516  0.05320837 -0.04963323  0.11256037 -0.27040117
 -1.16649558 -0.72553023 -0.73888761 -0.59840518 -0.0191495  -0.27417893
  0.46869722 -0.4946833 ]:1
[-0.13088764  0.42197389 -0.48868051 -0.1243506   0.54479806 -0.0404043
  0.55662844 -0.52469301 -0.91551187 -0.65308692 -0.43129177 -1.0024806
 -1.06041223 -0.12249363]:1
[ 1.26715049 -0.62984717  0.20055991  0.72179939 -1.73980084 -1.30594808
 -0.1927041  -1.35657305 -1.18131125 -1.06134182 -1.08141979  0.66206401
  0.60616202  1.36626501]:1
[-0.41594767 -1.56065334  0.37287001 -0.1243506   0.08125625  1.02431294
  0.75625569  0.99585167  0.67755845  0.43576978  0.69607587  0.71430292
  0.51461822 -0.20232262]:0
[ 0.33044906  0.00817021  0.42230717  0.52287652  0.01985201 -0.67317619
 -0.91671806 -0.00833439 -0.32580545  0.43576978  0.21925896  0.06410603
  0.42277623  0.23647759]:1
[-0.13088764  0.5251727  -0.46372194 -0.64640187 -0.07285635 -0.1262324
  0.13205535 -0.69699903 -0.32580545 -0.68016234 -0.30109708 -0.37814958
  0.04049886 -0.53459779]:0
[-0.375187   -0.83658093 -0.24245465 -0.92052729 -0.72121287  0.44875979
  0.05707341 -0.41000881 -0.32580545  0.43576978 -0.21444153 -0.24780589
  0.36164763 -0.33502534]:0
[ 0.09991305 -0.09536475  0.37287001  0.27398033  0.26667297  0.30515198
 -0.74192249 -0.86874562 -0.85682889 -0.32605829 -1.36336738 -0.3000448
 -0.03583733  0.01046827]:0
[0.6427711  0.24952768 1.18546334 1.02018371 1.16185046 0.47793012
 1.08052825 0.88116747 0.26447629 0.46337609 0.86938698 0.94861724
 0.63687541 0.87433188]:1
[-0.49746901 -0.35386599 -0.9067365  -0.84580992 -0.53579615 -0.29901054
 -0.94154975 -0.00833439  0.50035886 -0.6260115  -0.25755795 -0.97610756
 -0.58659107 -0.57451228]:1
[-0.18514698 -0.21604348 -0.02070738 -0.39799086 -0.47439191 -0.1262324
 -0.44248162  0.85263628  0.76615824  0.87163099  0.34945364  0.68843705
  0.11683506  0.0636012 ]:0
[ 0.58851176  0.33558271  0.84084314  0.64708202  0.48279181  0.50653949
  1.30547408  0.27865583 -0.06000607 -0.19015028  0.60942031  0.61033228
  0.33093424  0.70171467]:1
[0.3847084  0.66333136 0.29895426 0.07505745 0.29737509 0.36237072
 2.12930167 0.62270844 1.62166404 0.65396583 0.80471234 0.79240769
 0.59095441 0.4090948 ]:1
[-0.80952637 -0.97440344 -0.9067365  -0.97001543 -0.93733172 -0.1262324
 -0.8670547   1.6268945   1.50372276  0.87163099  0.06750606 -0.09210352
 -0.69364066 -0.57451228]:1
[1.66072919 1.92155003 3.72067774 3.0855854  2.52056975 3.26818489
 2.42922944 3.49205122 3.53921672 3.59403818 2.8857138  3.28922461
 1.92147048 1.6586257 ]:0
[-0.90454638 -1.09508218 -0.73442639 -1.34311712 -0.65920663 -0.1840121
 -1.51608672 -0.0944874  -0.62094632 -0.73484408 -0.45284998 -1.3924973
 -0.83110545 -0.57451228]:0
[-0.28016699  0.04245776  0.00377121  0.02508414  0.08125625 -0.41400898
 -1.31645946 -0.12301859 -0.56168802 -0.87075208 -0.60460288 -0.40401544
 -0.98407604 -0.30858847]:1
[ 0.05915238  0.68047514 -0.09462314 -0.02440399  0.35938133 -0.52900742
 -0.34266799 -1.12720465 -0.17794735 -0.21722571  0.26279809  0.11634494
  0.39206284 -0.01622778]:1
[ 2.55666995  0.71476269  1.75135084  0.54762058  0.51349393  0.10376447
 -0.11772216  0.47949305  1.38578147  2.28751632  2.75551911  2.48281817
  4.10808507  3.63905829]:1
[-1.06758907 -1.42283083 -1.54701972 -1.84090949 -0.84462335 -1.16234027
 -0.71709081 -1.09867346 -1.15196976 -0.46249718 -0.53950554 -1.10645124
 -0.20431371 -0.81374003]:1
[-0.42944633 -1.1125621  -0.1440603  -0.32327348  0.39008345  0.24737228
  0.58146012 -0.15154978 -0.41440525 -0.24483202  0.19770075 -0.50798608
 -0.49474908 -0.24223711]:1
[-0.47020701 -0.81943716 -0.66099061 -0.72111924  0.63690441  0.73653636
  1.60491496  0.76648327  0.32315927  0.43576978  0.41412828 -0.76816627
 -0.3265709  -0.16240812]:1
[0.27618972 1.64590501 0.69301163 1.39377058 0.79161902 0.39154105
 0.05707341 0.47949305 1.50372276 0.87163099 0.37101186 0.79240769
 0.65208301 0.16986705]:0
[-0.0088703  -0.11250852  0.12664416 -0.77109255  0.32867921  0.30515198
  0.03224173 -0.66790841 -0.00132309  0.62635952  0.39257007  0.03824016
  0.04049886  0.07681963]:0
[ 0.26269106  0.12884894  0.76692738 -0.14909467 -0.01085011  0.19015354
 -0.81690444  0.42187123  0.14653501  0.78987383 -0.58262196 -0.09210352
  0.26980564  0.30282895]:0
[-1.32538709  0.61156388 -1.35023102 -0.02440399  0.17396461  0.42015042
 -0.21753578  0.56564606  0.61830014 -0.40781544 -1.16807535 -1.21042188
 -0.98407604 -1.19914813]:0
[0.26269106 0.33558271 0.59461728 0.27398033 0.08125625 0.707927
 0.18171872 1.02438286 1.14932358 0.73572299 0.39257007 0.16807667
 0.22388465 0.22299997]:1
[-0.17164831 -0.30209851  0.05320837  0.19926296  0.35938133 -0.1840121
 -0.29251773 -0.06539677 -0.20786417 -0.27190744  0.71763408  0.16807667
  0.25459804  0.14343018]:0
[ 2.21735058  2.33535372  0.91427892  0.59759389  0.26667297  0.44875979
  0.03224173 -0.18064041 -0.26654715  0.51752694  0.47922562  1.07845375
  0.60616202  1.6187112 ]:0
[ 0.61550909 -0.02645349  1.18546334  0.7717727   0.01985201 -0.27040117
 -0.59195861 -0.52469301  0.20521799  0.19102919  0.24081717 -0.35228371
 -0.15839271  0.09029725]:1
[-0.09012697  0.35272649  0.71749022  1.04541296  0.23597085  0.16098321
  0.70610543 -0.4670712   0.52970035  0.84455557  0.11104519  0.22031558
 -0.09726412 -0.25545554]:1
[ 0.11341171  0.24952768  0.17608132 -0.1985828   0.23597085  0.59292856
  0.33168261  0.62270844  0.0872767   0.10927204 -0.23599974  0.0899719
  0.13234085  0.24969603]:0
[-0.49746901  0.09422524 -0.6854692  -0.67163111 -0.31967731 -0.27040117
 -1.04185027 -0.84021443 -0.97477017 -0.65308692 -0.27953887 -0.61195672
 -0.57108528 -0.01622778]:1
[ 0.54775109  0.78367394  0.02824981 -0.52219636 -0.13486259  0.27654261
  0.58146012 -0.41000881 -0.44374674  0.0545903  -0.23599974  0.42825686
 -0.3569861   0.09029725]:0
[-0.34818967  0.04245776  0.02824981  0.69705533  0.05055413 -0.06901367
  0.83123763  0.56564606  0.50035886 -0.05424228 -0.0191495  -0.03986461
 -0.41841289  0.22299997]:1
[-1.39314509  0.50802892  0.05320837  0.97069558  0.11256037  0.59292856
 -0.61727718 -0.92636744 -1.32859403 -2.47722715 -2.66404613 -1.21042188
 -3.17069063 -1.98318276]:0
[ 0.00489304 -0.59522346 -0.16853889 -0.52219636 -0.01085011 -0.21262147
 -1.74054565 -0.15154978 -0.23720566  0.43576978  0.26279809  0.11634494
 -0.06655073  0.07681963]:1
[-4.97469014e-01 -6.64134717e-01 -9.56173656e-01 -1.49255186e+00
 -9.06629596e-01 -6.73176190e-01 -1.49125503e+00 -2.66233984e-01
 -5.61688019e-01  4.39455534e-04 -4.09310851e-01 -5.86090858e-01
 -3.41778500e-01 -2.55455540e-01]:1
[-0.03586763 -0.59522346  0.17608132 -0.09912136 -1.523682    0.50653949
  0.6062918   0.65179907  0.47101737 -0.27190744 -0.58262196  0.5322275
  0.11683506  0.15664861]:1
[-0.19891032  0.05993769  0.15160272 -0.42273492 -0.35098143 -0.06901367
 -0.71709081  0.0201968  -0.35514694 -0.19015028  0.19770075  0.16807667
  0.48390482 -0.36172139]:1
[-0.29393033  0.07708147 -0.58707485  0.57236465  0.48279181  0.59292856
  0.83123763  0.65179907  0.2351348   0.73572299 -0.04070771 -1.0024806
  0.14754845 -0.29537003]:1
[-3.58676320e-02 -5.43455983e-01 -4.63721939e-01  3.40077864e-04
  3.28679214e-01  1.08153168e+00 -4.67313298e-01  2.21034015e-01
  3.23159272e-01  6.26359516e-01  6.30978521e-01  2.72047314e-01
  3.00519037e-01  1.83344667e-01]:0
[-0.91830972 -1.37106335 -0.9067365  -1.11945017 -0.93733172 -0.29901054
 -0.76675418  0.65179907  0.20521799 -0.32605829 -0.23599974 -1.34025839
 -0.66292727 -0.58773071]:0
[-0.04963098 -0.06074104 -0.24245465  0.22400702  0.82232114  0.24737228
 -0.84173612  0.59417725  0.47101737  0.35454351  0.24081717 -0.32591067
  0.08641986 -0.06936071]:1
[-0.375187   -0.35386599 -0.02070738 -0.1985828  -0.69051075  0.27654261
  0.85606932  0.33627765 -0.38448843 -0.13546855 -0.49596641 -0.37814958
 -0.3265709  -0.38841745]:1
[ 1.19912781 -0.57807969  0.88980033  1.44325871 -0.38168355 -0.21262147
 -0.06805879  0.07781862  0.14653501  0.08219661 -0.58262196  0.89637834
  0.86618219  1.35278739]:1
[-0.02236897  0.24952768  0.47126436  0.19926296  0.54479806  0.10376447
 -0.06805879  0.39334004  0.29381778  0.29986177  0.41412828  0.19394254
  0.28501325  0.03690514]:0
[ 0.14040904 -0.00897357 -0.24245465  0.32395364 -1.3695694   0.21876291
 -0.54229524  0.39334004  0.41175907  0.35454351  0.41412828  0.37601796
  0.51461822  0.54205671]:0
[-0.45670834 -0.44025718 -0.85777931 -0.22381204 -0.65920663 -0.21262147
 -0.94154975 -0.69699903  0.05793521 -0.40781544 -0.14934419 -0.42988131
  0.36164763 -0.44155037]:1
[ 0.00489304 -0.7159022   0.64357447 -0.44747899  1.19315458  0.99570357
  0.78108737  0.76648327  0.47101737  0.89870641  0.84782876  0.35015209
  0.92731078  0.62188569]:1
[ 0.04538903  0.26667145  0.69301163  0.47290321 -0.31967731 -0.73039492
  0.08190509  0.10634981  0.20521799  0.02751488  0.47922562  0.55809337
  0.22388465  0.43579086]:1
[-1.03890313e-01 -3.36722217e-01  1.02165561e-01  5.72364647e-01
  2.97375092e-01 -4.04042997e-02 -1.67872419e-01 -3.80918185e-01
 -5.32346529e-01  4.39455534e-04  4.14128278e-01  1.18671235e-02
  1.01627460e-01 -4.81464862e-01]:0
[-0.03586763 -0.45740095  0.24999707  0.69705533  0.6062023   0.707927
  0.40666455  1.31137309  0.58895865  0.62635952  0.97802345  0.87051247
  0.89689558  0.39587637]:0
[-0.06312964 -0.06074104  0.12664416  1.07015702 -0.16556471  0.39154105
 -0.81690444  0.19250282  0.2351348   0.10927204  0.30591451 -0.32591067
  0.08641986 -0.06936071]:1
[ 0.26269106  0.45626144 -0.43924334  0.02508414 -0.72121287 -1.39233715
  0.55662844 -0.55322421 -0.73888761 -0.68016234 -0.99476424 -0.24780589
 -0.23472891 -0.1092752 ]:0
[ 0.42546907 -0.26781096  0.74196882 -0.67163111 -0.38168355 -0.0404043
  0.13205535  0.53711486  0.1758765   0.27278635  0.17571982  0.22031558
 -0.21952131  0.16986705]:1
[ 0.11341171  0.07708147  0.69301163  0.14977483 -0.38168355 -0.27040117
  0.98071462  0.59417725  1.14932358  0.73572299  0.95646524  0.9222442
  0.16275606  0.68823705]:1
[-0.42944633  0.57694018  0.00377121 -0.1243506   0.66820854  0.53514886
  1.65506522  0.13544044  0.35307609 -0.02663597  0.54432297  0.74016879
  0.52982582 -0.17562656]:1
[-2.23689677e-02 -2.67810962e-01 -1.68538892e-01  3.40077864e-04
 -4.43087791e-01 -9.89562135e-01  1.08052825e+00 -1.23018590e-01
 -6.50287813e-01 -4.62497180e-01 -2.14441530e-01 -4.56254350e-01
  9.78547212e-03 -2.95370031e-01]:0
[-0.41594767 -0.69875842  0.15160272 -0.22381204 -0.93733172 -1.21955901
 -1.46593645 -0.35238699 -0.65028781 -0.27190744  0.26279809  0.24618145
 -0.4029071  -0.16240812]:1
[-0.02236897  1.68019256  0.34839142  0.89597821  0.82232114  0.56375822
 -0.4673133  -1.09867346  0.26447629 -0.43542176  0.04594785 -0.45625435
  0.08641986 -0.20232262]:0
[-1.47466644  0.62870766 -1.71932983  0.04982821 -0.28897519 -0.06901367
 -0.91671806 -0.72553023 -1.21065274 -1.82370077 -1.64489226 -2.09442592
 -1.24409621 -1.65090759]:0
[3.11302666 3.64533987 5.68952467 5.57357691 7.24388014 7.20954597
 5.12565804 6.53258116 6.81395715 6.53464141 5.00983167 5.78604153
 3.38945134 2.70858414]:0
[ 0.18116972  0.47340522  0.07768697  0.12454558  0.42138758  0.44875979
  0.28153235  0.30718703 -0.32580545  0.49045151 -0.38775264  0.402391
  0.17796366  0.18334467]:0
[ 0.30345173 -1.0779384  -0.46372194  0.72179939 -0.41238567 -0.21262147
 -0.34266799 -0.75406142 -0.35514694 -0.43542176 -1.03788066  0.03824016
  0.20867705  0.56875276]:1
[ 1.00908779  0.71476269  0.91427892  0.79651677  0.48279181 -0.29901054
 -0.44248162 -1.35657305 -0.56168802 -0.38074002 -0.49596641  0.35015209
  0.07121226  0.4090948 ]:1
[-0.91830972 -1.28467217 -1.42366681 -1.51729593 -1.43097364 -1.42094652
 -1.6660506  -1.09867346 -1.44711063 -0.92543382 -1.18963356 -1.80837986
 -1.01478943 -0.56103466]:0
[ 1.28064915 -0.50916843  1.48064639  0.02508414  1.0691421   0.79431607
  0.85606932  1.42605729  1.06072379  1.7157471   2.19204665  1.52070936
  2.65531182  2.23012862]:1
[-1.10834974  1.04251134 -0.09462314  1.36854134  2.92150331  1.91625204
  1.20566046  0.90969866  0.44167588 -0.13546855 -0.25755795 -0.76816627
 -0.2654423  -1.3984614 ]:0
[ 0.3169504  -0.09536475  0.12664416  0.14977483 -0.47439191 -1.04678087
  1.33030576  0.96732048  1.0313823   0.49045151  0.60942031 -0.01399874
  0.48390482  0.35596188]:0
[ 3.71040872  3.92132104  2.58842277  2.43835828  0.32867921 -1.04678087
 -1.39095451 -2.1599219  -1.00411166 -0.78899492  1.43328215  1.85848715
  1.98259908  2.88146053]:1
[-0.44320968 -0.14713223 -0.73442639 -0.67163111 -0.16556471 -0.35679024
 -0.76675418  0.10634981 -0.14860586 -0.19015028 -0.25755795 -0.82040518
 -0.41841289 -0.41485432]:1
[2.74670997 2.54208748 3.89298785 3.85701803 3.87868704 2.89401924
 2.97844783 2.43024335 2.15268748 1.44340021 0.97802345 2.69075945
 0.83576698 1.89785345]:1
[-0.55172835 -1.00902714 -0.11910173 -1.1689383  -1.15345056 -0.21262147
 -0.59195861 -0.3238558  -0.88617038 -0.29898286 -0.69125844 -0.71592737
 -0.66292727 -0.46798724]:1
[-0.52446634  1.30101259 -0.56259626 -0.39799086  0.17396461 -0.32761991
 -0.31734941 -0.86874562 -0.03066458 -0.59840518 -0.38775264 -0.6900615
 -0.23472891 -0.60094915]:0
[-1.31188843  0.8872089  -1.39918821 -0.22381204 -0.04215423  0.07515511
 -0.79207275 -0.49616182 -0.29646396 -1.41544587 -1.23317269 -1.49646794
 -1.13704662 -1.43837589]:0
[-0.09012697 -0.40563347  0.15160272 -0.42273492 -0.13486259  0.33376135
  0.65644206  0.36480884  0.79549973  0.78987383  0.15416161  0.29842035
 -0.14288692  0.36918031]:0
[ 0.2491924   0.26667145  0.05320837  0.52287652 -0.19626683 -2.6006622
  0.65644206 -0.5817554  -0.47308823 -0.46249718 -0.04070771  0.27204731
 -0.09726412 -0.06936071]:0
[-0.40244901 -1.26752839  0.59461728  0.12454558 -0.35098143  0.07515511
 -0.14255384  1.28284189  0.91344101  0.29986177 -0.27953887  0.32428622
 -0.58659107 -0.37493983]:1
[ 0.05915238 -0.33672222  0.07768697  0.24923626  0.48279181  0.67875666
  0.55662844  0.79501446 -0.11926437  0.16395377  0.37101186  0.19394254
  0.36164763 -0.20232262]:0
[-0.56522702  0.11136902 -1.27631527 -0.69637517 -1.15345056 -1.10456057
 -0.49214498 -0.03686558 -1.12205295 -0.87075208 -0.23599974 -0.97610756
 -0.43362049 -0.78704398]:0
[-0.38895034 -0.80195723 -0.73442639  0.04982821  0.01985201  0.0173754
 -0.99170001 -0.49616182  0.02859372 -0.54425434 -1.2547309  -0.71592737
 -0.3113633  -0.40163588]:0
[ 0.04538903 -0.83658093  0.24999707 -0.0743773   1.25455882  0.82292543
  0.68127375  1.5122103   1.29718168  0.95338815  0.78273142  0.0899719
  0.78984599  0.63510412]:1
[ 0.66976843 -1.19861713  0.07768697 -1.29362899 -0.53579615  0.10376447
  1.55525159  1.48367911  1.47380594  0.19102919  1.34662659  1.57244109
  1.17212335  0.72815154]:1
[0.58851176 0.31843893 1.16050478 0.72179939 1.59408814 2.08846921
 0.75625569 1.3975261  1.11998209 1.63398994 1.73678795 1.46847045
 0.82026119 0.70171467]:0
[ 1.93229056  1.71481627  1.48064639  1.6921549  -0.53579615 -0.38539961
 -0.04274021 -0.15154978  0.52970035 -0.32605829  0.56588118  1.13069266
  0.13234085  1.37948345]:0
[ 0.53425242  0.11136902  0.93923749  0.39818583 -0.75191499 -0.61539649
 -0.79207275 -1.09867346 -0.56168802 -0.51664802  0.11104519  0.402391
 -0.15839271 -0.08257914]:1
[-0.91830972 -1.35358342 -1.22687811 -1.09470611  0.08125625  0.59292856
 -0.01790853  1.19668888  0.67755845  0.46337609  0.37101186 -0.71592737
 -0.14288692 -0.57451228]:0
[ 1.04984846  1.09427882  0.71749022  0.39818583 -1.0607422  -0.35679024
 -0.69225913 -0.49616182 -0.29646396  0.0545903   0.45766741  0.84413943
  0.51461822  0.87433188]:0
[-0.22590765  0.99074386 -0.21797605 -0.34801755  0.14326249  0.16098321
 -0.69225913 -0.38091819 -0.50300504 -0.32605829  0.00240871 -0.17020829
 -0.3569861  -0.52112017]:0
[-0.61948635 -0.11250852 -0.29141184 -0.04963323  0.20526873 -0.0404043
  0.03224173 -0.03686558 -0.00132309 -0.59840518  0.1326034  -0.74230041
 -0.49474908 -0.34850296]:0
[-0.34818967  0.14599272 -0.83330071 -0.14909467  0.32867921 -2.54288249
  1.35562434 -0.23770279 -0.35514694 -0.19015028 -0.3226553  -0.61195672
 -0.2806499  -0.25545554]:0
[0.73779111 0.76653017 1.43120923 0.27398033 1.16185046 1.71486453
 1.13067851 1.48367911 1.62166404 1.30696131 0.8913679  0.01186712
 0.48390482 0.20978154]:0
[-0.32092766 -1.12970588  0.37287001 -0.59691373 -0.07285635  0.50653949
  0.50647818  1.19668888  1.32652317  1.66106537  1.1948737   1.26052917
  0.92731078  0.0636012 ]:0
[-6.19486352e-01 -7.50525900e-01 -7.34426392e-01 -6.71631108e-01
 -5.97802393e-01 -2.41791807e-01 -8.67054698e-01  7.78186217e-02
  1.46535007e-01  4.39455534e-04 -9.29666893e-01 -6.90061499e-01
 -4.33620488e-01 -2.81892410e-01]:0
[ 0.19493306  0.23204775  0.15160272  0.07505745 -0.59780239 -0.38539961
 -0.29251773 -0.15154978  0.55961716  0.73572299 -0.04070771 -0.17020829
  0.23939044  0.07681963]:1
[-0.29393033 -1.38820712 -0.56259626 -1.31837305 -0.22696895  0.16098321
  1.03086489 -0.43854    -1.00411166 -1.06134182 -0.3226553  -0.53385195
 -0.75476926 -0.05614227]:1
[ 0.53425242  0.62870766  0.52070152 -0.14909467  0.08125625 -0.67317619
 -1.34129115 -0.49616182 -0.50300504 -0.0813177   0.4361092   0.14221081
  0.51461822  0.01046827]:1
[-0.42944633 -0.73304597 -0.1440603  -0.92052729 -0.13486259 -0.1840121
 -0.21753578 -0.23770279 -0.38448843 -0.21722571 -1.51512028 -0.45625435
 -0.37249189 -0.28189241]:1
[2.12233057 1.36992384 3.9913822  3.25976421 4.68115616 4.21734273
 4.02722125 3.86463502 3.7457578  3.97521765 4.1212952  3.75734608
 2.8082824  2.36309053]:1
[ 0.08614971 -0.81943716  0.05320837 -0.74634848  1.2238567   0.76514573
  0.63112349  1.05347349  1.26726487  1.33456763  1.25954833  0.48049577
  1.30958815  0.98059773]:1
[-1.31188843  0.50802892 -1.64541407 -0.22381204 -0.16556471 -0.1840121
 -0.44248162  0.0201968   0.1758765  -1.25193156 -1.102978   -1.73027509
 -0.93815504 -1.49150881]:0
[ 0.09991305 -0.4916885   0.39734861 -0.69637517 -0.50509403  0.44875979
  0.70610543 -0.03686558  0.29381778  0.19102919  0.15416161  0.63619815
 -0.3569861   0.39587637]:0
[ 0.04538903  0.59408395 -0.7099478   0.07505745  0.51349393  0.04598477
  1.08052825 -0.63937722  0.05793521 -0.24483202 -0.38775264 -0.58609086
 -0.43362049 -0.45476881]:0
[ 0.98209046 -1.1125621   0.05320837 -1.06947686 -0.47439191  0.42015042
  1.9545061   1.13906706  1.0313823   0.78987383  1.73678795  1.93659192
  1.64624271  1.19338862]:1
[-0.71450636 -1.06079462 -0.6854692  -0.4974523  -0.25827307  0.19015354
 -1.51608672  0.25012464 -0.14860586 -0.24483202 -0.0191495  -1.0024806
 -0.3417785  -0.46798724]:0
[-4.43209678e-01  6.97618913e-01  7.76869668e-02  3.40077864e-04
 -1.96266830e-01  1.73754030e-02 -1.24147752e+00 -9.26367438e-01
 -7.08970793e-01 -7.61919499e-01 -3.01097085e-01 -7.94032141e-01
  3.30934240e-01 -5.34597787e-01]:1
[-1.25762909 -1.25038461 -1.2513567  -1.41783449 -0.62850451 -0.93178243
 -0.51746356 -1.49978845 -1.41719382 -1.08841724 -0.84301134 -0.89800278
 -0.43362049 -0.64086364]:1
[ 0.34421241  0.1631365   0.96371608  1.07015702  0.6062023   0.36237072
 -0.39233135  1.28284189  0.85418271  0.51752694  0.78273142  0.97448311
  0.17796366  0.42257242]:1
[-0.49746901 -0.83658093 -0.73442639 -0.94527136 -0.16556471  0.19015354
 -0.79207275 -1.06958283 -0.32580545 -0.0813177   0.02396692 -1.02834646
 -0.12767932 -0.25545554]:0
[-0.15814965 -1.33643964  0.96371608  0.79651677  0.14326249  0.707927
  0.10673678  0.68033026  0.41175907  0.13634746  0.54432297  1.2346633
  0.46869722 -0.36172139]:0
[ 3.64238604  2.07685247  1.38225204  1.56794939 -0.78261711 -1.10456057
 -0.4673133  -1.09867346 -0.06000607  0.95338815  0.34945364  2.50919121
  3.22127316  3.74532414]:0
[ 0.37120973  0.14599272  0.32391283  0.09980152 -0.59780239 -1.21955901
  0.75625569  0.13544044 -0.00132309 -0.27190744  0.2843563   0.79240769
  0.11683506  0.76806603]:1
[ 3.47960803 -0.33672222  0.86532173 -0.29852942 -1.58568824 -2.02510904
 -0.4673133   0.33627765  0.20521799  1.30696131  4.31616452  3.67924131
  5.66790792  4.47648503]:1
[-1.36614776 -0.88834841 -0.78386355 -0.67163111 -0.41238567  0.10376447
  0.35651429 -0.23770279 -0.11926437 -0.59840518 -0.90810868 -1.13231711
 -1.22859042 -1.3984614 ]:0
[-0.33442632 -0.42277725  0.05320837 -0.22381204 -0.35098143 -0.1262324
 -0.64210887 -0.43854    -0.73888761 -0.78899492  0.1326034  -0.40401544
 -0.02062973 -0.37493983]:0
[-0.90454638 -0.04359727 -0.9067365   0.54762058  0.11256037  0.24737228
  1.60491496 -0.63937722  0.35307609 -1.0342664  -0.77791399 -0.61195672
 -1.3663534  -1.31863242]:0
[-2.93930331e-01  6.11563883e-01 -7.09947798e-01 -6.46401865e-01
  2.66672973e-01 -9.76230345e-02  1.55525159e+00 -1.23018590e-01
  9.42782505e-01  4.39455534e-04  6.74517654e-01 -1.39987434e-02
  3.00519037e-01 -4.01635881e-01]:1
[-0.75526703  0.26667145  0.05320837  0.19926296  1.71749862  1.34069889
  0.70610543  1.7415787   0.9427825   0.73572299  0.54432297 -0.09210352
  0.39206284 -0.64086364]:0
[-0.11738898 -0.66413472  0.10216556 -0.74634848 -0.69051075  0.33376135
  0.58146012  0.85263628  1.1792404   0.76279841  0.32747272  0.66206401
 -0.08175833  0.18334467]:0
[-0.13088764 -0.47454473  0.71749022 -0.97001543 -0.19626683 -0.01123396
  0.65644206  0.56564606 -0.03066458  0.24518004  0.4361092   1.10431962
 -0.18880792 -0.00275016]:0
[-0.17164831 -0.26781096  0.64357447 -0.72111924  0.32867921  0.62153793
  0.90573268  1.5122103   1.91680491  1.38871847  0.80471234  0.76654183
  0.04049886  0.01046827]:0
[-0.13088764 -0.54345598 -0.1440603   0.02508414  0.11256037  0.0173754
  0.00692315  0.19250282 -0.50300504  0.02751488  0.15416161  0.03824016
  0.30051904  0.02368671]:0
[ 0.27618972 -0.19889971  0.07768697  0.09980152 -0.41238567 -0.24179181
 -0.36749967  0.33627765 -0.35514694 -0.29898286 -0.1709024  -0.14383525
  0.19346945  0.26291446]:1
[0.77855178 0.59408395 1.50512499 1.94105108 2.58197399 2.26124735
 1.63023354 1.91388472 1.91680491 1.27988589 0.32747272 1.05258789
 0.6675888  0.51561984]:1
[ 0.11341171  0.57694018 -0.7099478  -0.02440399 -0.38168355 -1.33455745
  0.55662844 -0.26623398 -0.35514694 -0.3536646  -0.97320603 -0.01399874
 -0.05134312 -0.17562656]:0
[-0.0088703  -0.07822097  0.69301163  0.39818583 -0.07285635 -0.09762303
 -0.91671806  0.10634981  0.29381778  0.46337609 -1.16807535 -0.17020829
  0.02529126 -0.06936071]:0
[ 0.05915238 -0.80195723 -0.41476475 -1.41783449 -0.93733172 -0.09762303
  0.30685092  0.93822985  0.55961716  0.54513325  0.24081717  0.19394254
 -0.06655073  0.51561984]:1
[ 1.37566916 -0.68127849  1.25889913  0.67182609  0.01985201  0.27654261
  0.38183287  0.25012464  0.67755845  1.33456763  0.54432297  1.07845375
  0.62166781  0.95416086]:1
[-0.14465099 -0.04359727  0.59461728  0.02508414 -0.16556471 -0.01123396
  0.83123763  0.68033026  0.82484122  0.54513325  0.739615    0.68843705
  0.14754845  0.42257242]:1
[-1.30887641e-01  9.73600086e-01 -3.40848996e-01  1.24545582e-01
 -1.03558469e-01 -2.12621472e-01 -2.67686045e-01  3.07187025e-01
 -1.32309005e-03  4.39455534e-04  1.97700745e-01 -7.68166274e-01
  3.00519037e-01 -4.26646542e-02]:0
[ 0.42546907  1.21495756  0.61909587  1.51797609  0.01985201 -0.21262147
 -0.59195861 -1.41419487 -0.94542868 -0.68016234 -0.56106375 -0.42988131
 -0.84631306 -0.14918969]:1
[-0.03586763 -0.26781096  0.00377121 -0.1243506  -0.41238567  0.21876291
  0.65644206  0.36480884  0.70689994  0.59928409  0.26279809  0.5322275
 -0.02062973  0.2761329 ]:0
[ 4.51106479  3.21439241  1.92366095  1.46800278 -0.50509403 -1.59372466
 -0.24236747 -1.52887907 -1.35851084 -0.32605829  3.01548577  3.1593881
  4.33739186  4.48970347]:0
[ 2.33936792  0.81829765  1.23442053  0.59759389 -0.59780239 -0.29901054
 -0.64210887  0.30718703  1.06072379  1.49755105  1.80188529  1.67641173
  1.89075709  2.56240379]:1
[-0.78252904 -0.99188337 -0.39028616 -0.92052729 -0.28897519 -0.32761991
 -0.41716304 -0.2091716  -0.70897079 -1.30661329 -0.7994722  -0.76816627
 -0.63221388 -0.76060711]:0
[-0.97256906 -1.19861713 -1.00561082 -0.77109255 -1.24615892 -1.04678087
 -1.09151363  0.65179907  0.11661819 -0.87075208 -0.06268863 -0.50798608
 -0.55587768 -0.57451228]:1
[ 3.20804667  3.9902323   2.3911541   2.88666252  0.51349393  0.39154105
  0.10673678 -0.18064041 -0.8274874  -0.54425434 -0.25755795  1.33863394
  0.94281657  2.56240379]:0
[-0.26666832 -0.59522346 -0.43924334  0.14977483 -0.9066296  -0.1840121
 -0.94154975  0.53711486  0.58895865  0.65396583  0.50120654 -0.06573048
  0.36164763 -0.06936071]:0
[ 0.14040904 -0.25033103  0.71749022  1.14487439  0.72961278  0.56375822
  0.35651429  1.3975261   1.23792338  0.78987383  0.63097852  0.50636164
  0.86618219  0.15664861]:1
[-0.49746901 -1.4053509  -1.12848376 -0.72111924 -1.6783966  -1.62233402
 -0.26768605 -1.12720465 -0.47308823 -0.27190744 -0.97320603 -0.37814958
 -0.03583733 -0.20232262]:1
[-0.76903038  0.30129516  0.22551848  0.52287652  0.23597085  0.53514886
  0.68127375 -0.43854    -0.88617038 -1.66018646 -0.88612776 -0.45625435
 -1.59566018 -0.78704398]:1
[-0.09012697 -0.14713223  0.10216556  0.12454558  0.01985201 -0.0404043
 -0.66694055  1.13906706  1.41512296  1.14397789  0.39257007  0.24618145
  0.17796366  0.0636012 ]:1
[-4.83970350e-01  9.42252410e-02 -5.87074854e-01  3.40077864e-04
 -3.50981432e-01 -1.84012105e-01 -1.92704102e-01 -1.29951067e+00
 -5.91029510e-01  1.36347459e-01 -1.92460608e-01 -2.47805893e-01
 -5.42212972e-03 -5.47816222e-01]:1
[ 0.19493306 -0.37100977 -0.43924334 -0.09912136 -0.50509403 -1.73733246
  1.20566046  0.73795208  0.97269932  0.24518004  0.26279809 -0.50798608
  0.46869722  0.18334467]:0
[-1.58318511 -0.09536475 -1.17792092 -0.72111924  0.14326249 -0.21262147
 -1.06668195  0.07781862 -0.8274874  -0.29898286 -1.102978   -1.75664813
 -1.62637357 -1.63768915]:0
[-0.21240899  1.12856637 -0.11910173 -0.42273492  0.94573162  0.50653949
 -0.29251773 -0.81168324 -0.17794735 -0.7619195  -0.92966689 -0.53385195
 -0.12767932 -0.45476881]:0
[-0.0766283   0.78367394  0.10216556  0.79651677 -0.99873595 -2.19788718
  0.18171872 -1.21335766 -1.24056956 -0.6260115  -1.66687318  0.0899719
 -0.47954148 -0.09579758]:0
[ 0.52048908 -1.31929587 -0.16853889 -1.51729593 -0.81392123 -0.93178243
  0.83123763  0.47949305  0.9427825   0.84455557  1.84500171  1.10431962
  1.93667808  1.44583481]:1
[-0.307429   -0.57807969 -1.57149832 -0.82058068 -0.87532547 -1.10456057
  0.70610543  0.82354565  0.70689994 -0.02663597  0.30591451 -0.11796938
  0.28501325 -0.18884499]:0
[-0.14465099 -0.92263596 -0.6854692  -1.09470611 -0.07285635  0.13237384
 -0.74192249 -0.86874562 -0.32580545 -0.19015028  0.21925896 -0.50798608
  0.08641986 -0.05614227]:0
[-0.36168833 -0.61236724 -0.48868051 -0.92052729 -0.13486259 -0.06901367
 -1.04185027 -0.2091716  -0.47308823 -0.46249718  0.21925896 -0.92437582
 -0.49474908 -0.52112017]:0
[ 0.54775109  0.33558271  0.76692738  0.7717727   1.34726718  0.76514573
  1.77971053  0.19250282 -0.29646396  0.29986177  0.93448432  0.29842035
  0.36164763  0.66180018]:1
[ 0.0183917  -0.164276    0.02824981 -0.69637517 -0.04215423 -0.21262147
  1.10584683  0.22103402  0.05793521 -0.54425434 -0.75635578  0.79240769
  0.57574681  0.11673412]:1
[0.66976843 1.21495756 0.42230717 0.12454558 1.50137978 1.05292231
 2.67900696 1.08200468 2.00482938 1.30696131 1.62815147 1.20829026
 1.00394517 0.42257242]:1
[-0.57899036 -0.44025718 -0.5131591  -0.37276161 -0.69051075 -0.27040117
 -1.14166389 -0.23770279 -0.38448843 -0.6260115  -1.102978   -0.97610756
 -0.46403569 -0.707215  ]:0
[-0.18514698 -0.19889971 -0.61155345 -0.99475949 -0.62850451 -0.81678399
 -1.31645946 -0.78259261 -1.26991105 -1.30661329 -0.27953887 -0.76816627
 -0.29585751 -0.54781622]:1
[0.33044906 1.26638888 1.33281488 1.66741083 2.64398023 1.94486141
 1.65506522 2.77485539 2.0347462  2.31459174 1.08623722 1.18242439
 1.49327212 0.39587637]:1
[-0.32092766 -0.26781096  0.29895426  0.92072227  0.23597085  0.16098321
 -0.01790853 -0.03686558 -0.08992288 -0.54425434  0.17571982 -0.32591067
  0.08641986 -0.34850296]:0
[-0.26666832  0.30129516  0.10216556  0.37344177 -0.62850451  0.39154105
 -0.49214498 -1.09867346 -1.09271146 -0.6260115  -0.71281665 -0.42988131
 -0.43362049 -0.64086364]:0
[-0.82328971 -0.59522346 -0.6854692  -0.02440399 -0.35098143 -1.04678087
 -1.59106866  0.13544044 -0.11926437 -0.46249718  0.37101186  0.0899719
 -0.08175833 -0.38841745]:1
[-0.14465099 -0.164276   -0.21797605 -0.52219636 -0.16556471 -0.38539961
 -1.16649558 -0.69699903 -0.8274874  -0.51664802 -0.30109708 -0.63832977
 -0.46403569 -0.56103466]:1
[-0.307429   -0.37100977 -0.04566595 -0.04963323 -0.38168355  0.13237384
 -0.39233135 -0.23770279 -0.38448843  0.27278635  0.34945364  0.24618145
  0.16275606  0.0636012 ]:0
[-2.39760452 -1.73309955 -2.13786579 -1.09470611 -0.38168355 -0.06901367
  0.48164649 -0.15154978  0.02859372 -1.11602355 -1.5582367  -1.67854335
 -2.14611573 -2.27580263]:1
[-0.97256906  0.66333136 -1.30079386 -0.64640187 -0.65920663 -1.04678087
 -0.76675418 -1.47125726 -1.80093449 -2.39546999 -1.57979491 -1.80837986
 -1.59566018 -1.31863242]:0
[ 2.95024865  3.38683862  1.55456215  2.16471803 -0.69051075 -1.0759512
 -0.56712692  0.65179907 -0.17794735 -0.13546855  0.30591451  1.52070936
  1.21804435  2.27004311]:0
[-0.48397035 -1.06079462 -0.02070738 -0.6216578  -0.41238567  0.33376135
  0.15688704  0.65179907  0.52970035  0.02751488  0.34945364  0.37601796
  0.11683506 -0.1092752 ]:0
[-0.6332497   0.02531399 -0.46372194 -0.79583661 -0.38168355 -0.38539961
 -1.21615894 -0.38091819 -1.00411166 -0.46249718 -0.84301134 -1.13231711
 -1.12154083 -0.68077813]:1
[-0.15814965  0.5597964   0.15160272  0.87123414  0.35938133  0.9093145
  1.08052825  0.16397163  0.88409952  1.60691452  0.30591451 -0.01399874
  0.40756863 -0.4946833 ]:1
[-6.74010369e-01  5.76940179e-01 -9.06736496e-01  3.40077864e-04
  3.90083453e-01  2.76542613e-01  8.31237633e-01 -2.95324610e-01
  3.82417575e-01 -2.17225706e-01 -3.87752640e-01 -6.11956725e-01
 -7.39263466e-01 -6.27645202e-01]:0
[ 0.49349175  0.33558271  0.98819467  0.79651677 -0.16556471 -3.00343721
  0.880901    0.04928743 -0.85682889  0.13634746  0.11104519  1.05258789
 -0.06655073  0.14343018]:0
[ 0.05915238 -0.04359727  0.02824981 -0.59691373 -0.44308779 -1.21955901
  0.50647818 -0.15154978 -0.11926437 -0.29898286  0.19770075  0.06410603
 -0.14288692  0.23647759]:1
[-0.36168833 -1.61242082  0.61909587  0.02508414  0.23597085  0.96653324
  0.6062918   0.85263628  0.85418271  0.76279841  0.739615    0.63619815
  0.54503342 -0.06936071]:0
[-0.76903038 -0.76766968 -0.75938496 -0.77109255 -1.27686104 -0.15540274
 -0.69225913 -0.06539677  0.2351348   0.27278635 -0.12778597 -0.48212022
  0.31572664 -0.50790173]:0
[ 1.09060914  1.21495756  1.01315324  1.39377058 -0.16556471 -0.35679024
 -0.56712692  0.90969866  0.55961716 -0.02663597 -0.10580505  0.89637834
  0.54503342  0.88755032]:0
[-0.22590765 -0.45740095 -0.78386355 -0.0743773  -0.81392123 -1.04678087
 -0.4673133  -1.04105164 -0.6796293  -0.0813177   0.1326034  -0.32591067
  0.00978547 -0.26867398]:0
[-0.99956639 -0.00897357 -0.63603204  0.02508414 -0.25827307  0.13237384
 -0.26768605 -1.55741027 -1.32859403 -0.57132976 -0.92966689 -0.6900615
 -0.67813487 -1.07940466]:0
[-0.93180839 -1.00902714 -0.02070738 -0.6216578  -0.01085011 -0.06901367
 -0.14255384 -0.38091819 -0.38448843 -0.81660123 -1.38492559 -0.66419563
 -0.66292727 -0.89330983]:1
[-0.51096768 -0.7159022   0.07768697 -0.6216578   0.45208969  0.76514573
  1.60491496  0.62270844  0.0872767   0.08219661  0.24081717  0.03824016
 -0.50995669 -0.06936071]:1
[-0.04963098  0.1977602  -0.29141184  0.17451889  0.29737509 -2.05371841
  0.70610543 -0.55322421 -0.62094632 -0.24483202 -0.25755795  0.03824016
 -0.18880792 -0.30858847]:0
[-0.04963098  1.57665761 -0.02070738  0.24923626  0.9150295   0.42015042
 -0.14255384 -0.63937722  0.79549973  0.16395377 -0.45284998 -0.06573048
  0.33093424 -0.25545554]:0
[ 0.11341171  1.12856637  0.15160272 -0.0743773  -0.22696895  0.707927
  0.45632792  0.30718703  1.06072379  0.02751488  0.5878621   0.32428622
  0.48390482  0.28961052]:0
[ 0.45273108 -0.164276    0.24999707 -0.47270823 -0.38168355 -0.29901054
  0.05707341  0.42187123 -0.50300504 -0.02663597  0.32747272  0.402391
 -0.2806499   0.50214222]:1
[-1.10834974 -0.59522346 -1.22687811 -0.92052729  0.23597085  0.16098321
  1.48026965 -0.72553023 -0.20786417 -0.97958466 -0.71281665 -0.66419563
 -1.18296761 -1.09288228]:0
[-0.53822969 -0.4916885  -0.3163704  -0.72111924 -0.28897519 -0.06901367
 -0.81690444  0.04928743 -0.47308823 -1.06134182 -0.51794733 -0.24780589
 -0.2654423  -0.29537003]:0
[-1.54268912 -0.21604348 -0.98065225 -0.84580992 -0.28897519 -0.06901367
 -1.16649558 -0.38091819 -1.71233469 -0.70723776 -0.9512251  -1.36663143
 -1.32043241 -1.5314233 ]:0
[ 0.18116972 -1.12970588  0.32391283 -0.77109255  0.17396461 -0.01123396
  1.58008328  0.0201968  -0.35514694 -0.46249718  0.2843563   0.06410603
 -0.24993651  0.48892378]:1
[-0.38895034 -0.66413472 -1.03008941 -0.69637517  0.20526873  0.13237384
 -0.8670547   0.19250282 -0.11926437  0.43576978 -0.23599974 -0.61195672
 -0.08175833 -0.1092752 ]:1
[0.62927243 0.64585143 1.43120923 0.7717727  0.63690441 1.08153168
 0.70610543 0.62270844 0.14653501 0.73572299 1.02113987 0.71430292
 0.42277623 0.51561984]:0
[0.28968839 0.1631365  0.27447566 0.67182609 1.40927342 0.9093145
 0.53130986 0.85263628 1.59232255 2.55933232 1.10821814 0.87051247
 1.09548897 0.66180018]:1
[-0.66024702 -1.12970588 -0.16853889 -0.17383874  0.57550018  0.47793012
  0.83123763  0.59417725  0.29381778 -0.16307486 -0.23599974 -0.89800278
 -0.46403569 -0.34850296]:1
[-1.70546713  0.09422524 -0.80834215  0.37344177  0.08125625 -0.50039805
 -1.49125503 -2.33222792 -2.68578178 -3.45725126 -3.27063501 -2.17253069
 -3.73665197 -2.64799229]:0
[-0.55172835 -1.6641883   0.37287001  0.09980152 -0.22696895  0.8515348
  0.6062918   1.08200468  0.70689994  0.21810462  0.37101186  0.66206401
  0.26980564 -0.33502534]:0
[ 0.15417239 -0.47454473 -0.02070738 -0.69637517 -0.59780239 -0.29901054
 -0.59195861 -0.00833439  0.82484122  0.10927204  0.04594785 -0.50798608
 -0.11247172  0.14343018]:1
[-1.14884574 -1.57779711 -0.53763769 -0.59691373  0.08125625  0.56375822
 -0.51746356 -0.00833439 -0.29646396 -0.84367666 -1.29827003 -0.40401544
 -0.67813487 -1.06618622]:0
[ 2.55666995  2.93874739  1.72687225  1.64218159 -0.41238567 -0.93178243
 -0.71709081 -1.44272606 -1.47645212 -2.66781688 -1.51512028  0.37601796
 -1.51932398  1.29965447]:1
[-0.10389031 -0.42277725 -0.04566595  0.07505745 -0.53579615  0.10376447
  0.05707341 -0.18064041  0.55961716  0.51752694 -0.3226553   0.19394254
 -0.3569861   0.12995256]:0
[-0.57899036 -0.83658093  0.15160272 -0.22381204 -0.69051075 -0.24179181
  0.43149623 -0.84021443 -0.53234653 -0.40781544 -0.34421351  0.16807667
 -0.38769949 -0.20232262]:0
[-0.19891032 -0.04359727  0.27447566 -0.02440399 -0.53579615 -0.09762303
 -0.69225913 -0.12301859 -0.62094632  0.24518004  0.00240871 -0.19607416
 -0.08175833 -0.05614227]:1
[-0.22590765  0.1977602  -0.02070738 -0.64640187 -0.87532547 -0.09762303
  0.65644206 -0.26623398 -0.79757059 -1.06134182 -0.56106375 -0.24780589
 -0.80069025 -0.17562656]:0
[-0.55172835 -0.52631221 -0.36532759 -0.84580992 -1.12274844 -0.84539336
 -1.44110477 -0.81168324 -2.18467515 -1.14309898 -0.49596641 -0.71592737
 -1.19817522 -0.74712949]:1
[-0.66024702 -0.33672222 -0.8822579  -1.49255186  0.01985201  0.13237384
  1.38045602  0.65179907  0.47101737 -0.19015028 -0.69125844 -0.40401544
  0.36164763 -0.68077813]:1
[ 1.57920785  0.28381523  0.00377121 -0.02440399 -1.49297988 -0.81678399
 -0.51746356 -0.00833439  0.05793521  0.46337609  1.38974302  0.97448311
  1.37071674  1.73845468]:1
[ 1.22638982 -0.06074104  1.60351934  1.46800278  2.61327811  2.635413
  1.85469247  2.20087494  1.85754661  1.19812873 -0.0191495   1.05258789
 -0.05134312  0.44900929]:1
[ 2.00004856  1.68019256  1.35729348  1.21959177  0.05055413 -0.98956213
 -1.31645946 -2.2746061  -1.65365171 -0.78899492 -0.30109708  0.71430292
  0.62166781  1.43261637]:0
[-1.44766911 -1.35358342 -0.80834215 -1.29362899 -0.38168355  0.65014729
  1.33030576  0.10634981  0.67755845 -0.24483202 -0.1709024  -0.19607416
 -0.67813487 -0.48146486]:0
[ 1.41642984 -0.45740095  0.76692738  0.94595152 -0.53579615 -0.21262147
  0.15688704 -0.55322421  0.0872767   0.87163099 -0.10580505  1.57244109
  1.61552931  1.83124291]:1
[ 3.95470808  1.36992384  2.14540821  1.16961846 -1.18415268 -1.88150124
  0.08190509 -0.5817554  -0.7682291   0.68104125  3.16723867  2.97731269
  4.18442127  4.35674156]:0
[-0.307429   -1.4053509  -1.17792092 -1.1689383  -0.53579615 -0.38539961
 -0.49214498 -0.15154978  0.38241758  0.24518004  0.11104519 -0.66419563
 -0.02062973 -0.21554105]:0
[-3.75186997e-01 -4.40257176e-01  1.26644155e-01  3.40077864e-04
 -3.50981432e-01  4.20150418e-01  6.92315034e-03  6.51799066e-01
  2.93817781e-01 -2.66359669e-02  1.11045190e-01  4.28256863e-01
 -4.18412886e-01 -1.62408125e-01]:0
[-0.02236897  0.42197389  0.17608132  0.17451889 -0.04215423 -0.09762303
 -0.24236747 -0.06539677 -0.17794735 -0.10839313  0.24081717  0.5322275
 -0.49474908  0.07681963]:0
[-0.56522702  0.26667145 -0.78386355 -0.0743773  -0.78261711 -0.96095277
 -0.24236747  0.13544044 -0.44374674 -0.40781544 -0.43129177 -0.40401544
 -0.14288692 -0.57451228]:0
[-0.51096768 -0.78481345 -0.29141184  0.72179939  0.57550018  0.707927
  0.10673678  1.08200468  1.14932358  0.3269372   0.04594785 -0.48212022
  0.00978547 -0.30858847]:0
[ 0.91406778  1.45597887  0.10216556 -0.44747899  0.69891066  0.44875979
  1.87952416  0.85263628  1.56240574  0.16395377  1.17289277  0.87051247
  0.98843938  0.76806603]:1
[ 0.05915238 -0.19889971  0.59461728 -0.42273492  0.01985201 -0.09762303
 -1.06668195  0.45096185  0.11661819  0.57220867 -0.7994722  -0.14383525
  0.04049886  0.22299997]:0
[-1.96326515  1.00788764 -2.13786579  0.22400702 -0.01085011 -0.01123396
 -0.84173612 -2.10230008 -2.50915751 -2.17780483 -3.2490768  -3.03117604
 -3.24732502 -2.79417263]:0
[-0.03586763  0.33558271 -0.26693324 -0.74634848 -0.22696895  0.42015042
 -0.76675418  0.19250282  0.55961716  0.27278635  0.06750606 -0.3000448
 -0.09726412 -0.36172139]:0
[-0.64674836 -0.07822097 -0.83330071 -0.42273492 -0.16556471  0.67875666
 -0.81690444  0.13544044  0.02859372 -0.46249718 -0.1709024  -0.87213692
 -0.24993651 -0.707215  ]:0
[-0.55172835 -0.94011589  0.02824981 -0.92052729 -0.9066296  -0.61539649
 -1.29114088 -0.49616182 -0.53234653 -1.11602355 -0.82145313 -0.45625435
 -0.81589785 -0.85339534]:1
[-0.44320968 -0.4916885  -0.04566595 -0.47270823 -1.15345056 -0.06901367
 -0.1927041  -0.52469301 -0.23720566  0.46337609  0.21925896  0.19394254
  0.51461822 -0.46798724]:0
[0.6427711  0.5251727  1.48064639 0.94595152 0.20526873 0.65014729
 0.73142401 0.76648327 0.67755845 0.78987383 0.1326034  0.63619815
 0.16275606 0.43579086]:1
[-0.78252904 -1.33643964 -1.42366681 -1.09470611 -1.12274844 -0.67317619
  0.18171872 -0.35238699 -0.08992288 -0.43542176 -0.40931085 -0.42988131
 -0.80069025 -0.77382554]:0
[-0.307429   -0.88834841 -0.6854692  -0.6216578   0.20526873 -0.38539961
 -0.26768605 -0.55322421 -0.59102951 -0.05424228 -0.12778597 -0.19607416
 -0.00542213 -0.36172139]:1
[ 0.49349175  0.8872089   0.88980033  0.8460049  -0.19626683 -0.41400898
 -0.59195861 -0.55322421 -0.47308823 -2.04136593 -1.31982825  0.45412273
 -1.79455176  0.01046827]:1
[ 0.04538903 -0.09536475  0.79140598 -0.32327348 -0.81392123 -1.0759512
 -1.51608672  0.04928743  0.35307609 -0.29898286  0.21925896  0.50636164
 -0.21952131  0.14343018]:1
[ 0.05915238 -1.30215209 -0.6854692  -1.56726924 -0.72121287 -1.13316994
  1.05569657  0.0201968   0.52970035  0.73572299  1.62815147  0.42825686
  1.7073713   1.15347413]:1
[ 1.0363498   0.50802892  0.79140598  0.89597821 -0.93733172 -0.81678399
  0.10673678 -0.63937722 -0.23720566 -0.13546855 -0.23599974  0.42825686
 -0.41841289  0.55527514]:0
[ 0.18116972 -0.33672222  0.05320837 -0.17383874 -0.53579615 -0.90317306
 -0.94154975 -0.23770279 -0.62094632 -0.32605829 -0.86456955 -0.24780589
 -0.11247172 -0.00275016]:1
[-0.66024702 -0.57807969 -0.02070738 -0.02440399 -0.56710027 -0.55817775
 -1.01653169  0.04928743 -0.17794735 -0.78899492 -0.9512251  -0.3000448
 -0.73926347 -0.85339534]:0
[ 0.18116972 -1.1125621   0.05320837 -0.92052729  0.42138758 -0.1262324
  1.18082877 -0.3238558  -0.62094632 -0.05424228  0.76117321  0.16807667
  0.19346945  0.5819712 ]:1
[ 1.26910378e-01 -1.37106335e+00 -5.13159100e-01 -4.97452295e-01
